{"learner":{"attributes":{},"feature_names":[],"feature_types":[],"gradient_booster":{"model":{"gbtree_model_param":{"num_parallel_tree":"1","num_trees":"100"},"iteration_indptr":[0,1,2,3,4,5,6,7,8,9,10,11,12,13,14,15,16,17,18,19,20,21,22,23,24,25,26,27,28,29,30,31,32,33,34,35,36,37,38,39,40,41,42,43,44,45,46,47,48,49,50,51,52,53,54,55,56,57,58,59,60,61,62,63,64,65,66,67,68,69,70,71,72,73,74,75,76,77,78,79,80,81,82,83,84,85,86,87,88,89,90,91,92,93,94,95,96,97,98,99,100],"tree_info":[0,0,0,0,0,0,0,0,0,0,0,0,0,0,0,0,0,0,0,0,0,0,0,0,0,0,0,0,0,0,0,0,0,0,0,0,0,0,0,0,0,0,0,0,0,0,0,0,0,0,0,0,0,0,0,0,0,0,0,0,0,0,0,0,0,0,0,0,0,0,0,0,0,0,0,0,0,0,0,0,0,0,0,0,0,0,0,0,0,0,0,0,0,0,0,0,0,0,0,0],"trees":[{"base_weights":[-3.6158194E-11,7.049292E-4,-2.2501221E-3,7.171426E-3,6.004993E-4,-1.5285618E-3,-6.334976E-3,1.1690345E-3,5.3403876E-3,5.115124E-4,6.5247025E-3,-2.369069E-3,3.2562073E-3,-1.5703079E-3,-4.579329E-3,6.726313E-3,3.5807786E-3,-1.9420839E-4,1.0348489E-3,7.678214E-3,-4.008331E-3,2.1908367E-3,-2.602506E-3,4.7492995E-3,-2.1178657E-3,-1.0657758E-3,-6.5732324E-3,7.018362E-4,2.8292648E-3,3.7328963E-4,4.973904E-5,-3.151019E-3,3.024522E-4,3.5822012E-3,4.005444E-4,4.1806754E-3,1.06435735E-2,-5.1777787E-4,3.3473058E-5,-2.3074803E-4,3.8974835E-3,-4.5572696E-3,-1.815875E-3,1.7699979E-3,7.0768595E-3,-6.2611856E-4,3.0163798E-4,2.68443E-3,-4.1733175E-3,-8.458693E-3,-3.1607915E-3,3.6785382E-4,5.6535904E-5,1.2067278E-4,-5.0282024E-4,7.66885E-5,-2.8995768E-4,1.8781202E-4,9.3872397E-4,-2.6242904E-4,1.04313214E-4,-1.8921876E-4,7.5962313E-4,1.1754209E-3,4.7386994E-4,1.9194471E-4,-1.4977904E-4,6.355666E-4,1.3084554E-4,-2.5368072E-4,-6.110995E-4,-6.1940786E-4,-1.2298435E-4,-8.5302425E-5,4.8291247E-4,3.136002E-4,8.850709E-4,-2.1807085E-4,1.724537E-4,2.8444745E-5,4.460713E-4,-6.909531E-4,-2.9455905E-4,-3.80516E-4,-9.273891E-4,-6.265198E-4,-9.155878E-5],"categories":[],"categories_nodes":[],"categories_segments":[],"categories_sizes":[],"default_left":[0,0,0,0,0,0,0,0,0,0,0,0,0,0,0,0,0,0,0,0,0,0,0,0,0,0,0,0,0,0,0,0,0,0,0,0,0,0,0,0,0,0,0,0,0,0,0,0,0,0,0,0,0,0,0,0,0,0,0,0,0,0,0,0,0,0,0,0,0,0,0,0,0,0,0,0,0,0,0,0,0,0,0,0,0,0,0],"id":0,"left_children":[1,3,5,7,9,11,13,-1,15,17,19,21,23,-1,25,27,29,31,33,35,37,39,41,43,45,47,49,-1,51,-1,-1,53,55,57,59,61,63,-1,-1,65,67,69,71,73,75,-1,77,79,81,83,85,-1,-1,-1,-1,-1,-1,-1,-1,-1,-1,-1,-1,-1,-1,-1,-1,-1,-1,-1,-1,-1,-1,-1,-1,-1,-1,-1,-1,-1,-1,-1,-1,-1,-1,-1,-1],"loss_changes":[6.3034673E-3,2.0391387E-3,2.7845171E-3,3.3473596E-4,1.5671205E-3,3.2531724E-3,2.2635758E-3,0E0,6.370724E-5,1.084552E-3,5.6537567E-4,7.369786E-4,9.809606E-4,0E0,8.406823E-4,1.7676502E-6,6.585964E-6,1.8380858E-3,2.7227988E-3,3.7036138E-4,2.7128088E-5,1.4141417E-4,9.973659E-4,6.4625195E-4,2.7255763E-4,5.356294E-4,4.6868366E-4,0E0,3.6883303E-6,0E0,0E0,1.4785193E-3,1.5964239E-3,3.3061681E-3,2.6287057E-3,4.292176E-4,8.202181E-5,0E0,0E0,4.3740747E-5,1.1897E-4,5.7153567E-4,1.1931603E-3,3.4915807E-4,3.427402E-4,0E0,6.7339024E-5,8.8255154E-5,6.363043E-5,1.505951E-4,1.9639437E-4,0E0,0E0,0E0,0E0,0E0,0E0,0E0,0E0,0E0,0E0,0E0,0E0,0E0,0E0,0E0,0E0,0E0,0E0,0E0,0E0,0E0,0E0,0E0,0E0,0E0,0E0,0E0,0E0,0E0,0E0,0E0,0E0,0E0,0E0,0E0,0E0],"parents":[2147483647,0,0,1,1,2,2,3,3,4,4,5,5,6,6,8,8,9,9,10,10,11,11,12,12,14,14,15,15,16,16,17,17,18,18,19,19,20,20,21,21,22,22,23,23,24,24,25,25,26,26,28,28,31,31,32,32,33,33,34,34,35,35,36,36,39,39,40,40,41,41,42,42,43,43,44,44,46,46,47,47,48,48,49,49,50,50],"right_children":[2,4,6,8,10,12,14,-1,16,18,20,22,24,-1,26,28,30,32,34,36,38,40,42,44,46,48,50,-1,52,-1,-1,54,56,58,60,62,64,-1,-1,66,68,70,72,74,76,-1,78,80,82,84,86,-1,-1,-1,-1,-1,-1,-1,-1,-1,-1,-1,-1,-1,-1,-1,-1,-1,-1,-1,-1,-1,-1,-1,-1,-1,-1,-1,-1,-1,-1,-1,-1,-1,-1,-1,-1],"split_conditions":[1.1806975E2,9.775353E1,1.1956693E2,-2.0553106E-1,1.1746237E2,1.738323E6,1.2051175E2,1.1690345E-3,4.7944904E1,-9.881414E-3,1.1804058E2,1.1722475E2,1.19991844E2,-1.5703079E-3,1.21868355E2,-9.532311E-2,6.462183E1,-8.191E4,8.2547E4,1.1709923E2,1.17658104E2,3.238925E1,1.1713395E2,4.253236E-1,3.8937333E-1,1.636692E6,2.330579E6,7.018362E-4,9.77048E1,3.7328963E-4,4.973904E-5,4.486593E-1,1.16244675E2,1.0032796E2,1.05928276E2,-3.2787263E-2,4.877017E-1,-5.1777787E-4,3.3473058E-5,1.1685432E2,1.16933525E2,1.1854854E2,-2.2477764E-1,-1.7573876E-2,-2.1946213E-1,-6.2611856E-4,1.20136185E2,1.2060049E2,1.2120053E2,1.20763916E2,2.1263424E-1,3.6785382E-4,5.6535904E-5,1.2067278E-4,-5.0282024E-4,7.66885E-5,-2.8995768E-4,1.8781202E-4,9.3872397E-4,-2.6242904E-4,1.04313214E-4,-1.8921876E-4,7.5962313E-4,1.1754209E-3,4.7386994E-4,1.9194471E-4,-1.4977904E-4,6.355666E-4,1.3084554E-4,-2.5368072E-4,-6.110995E-4,-6.1940786E-4,-1.2298435E-4,-8.5302425E-5,4.8291247E-4,3.136002E-4,8.850709E-4,-2.1807085E-4,1.724537E-4,2.8444745E-5,4.460713E-4,-6.909531E-4,-2.9455905E-4,-3.80516E-4,-9.273891E-4,-6.265198E-4,-9.155878E-5],"split_indices":[7,0,8,5,3,9,7,0,4,5,7,2,2,0,7,5,4,9,9,8,0,4,8,6,6,9,9,0,1,0,0,6,8,0,7,5,6,0,0,1,0,7,5,5,5,0,0,0,7,0,5,0,0,0,0,0,0,0,0,0,0,0,0,0,0,0,0,0,0,0,0,0,0,0,0,0,0,0,0,0,0,0,0,0,0,0,0],"split_type":[0,0,0,0,0,0,0,0,0,0,0,0,0,0,0,0,0,0,0,0,0,0,0,0,0,0,0,0,0,0,0,0,0,0,0,0,0,0,0,0,0,0,0,0,0,0,0,0,0,0,0,0,0,0,0,0,0,0,0,0,0,0,0,0,0,0,0,0,0,0,0,0,0,0,0,0,0,0,0,0,0,0,0,0,0,0,0],"sum_hessian":[3.972E3,3.025E3,9.47E2,4.7E1,2.978E3,8.06E2,1.41E2,1.2E1,3.5E1,2.935E3,4.3E1,6.86E2,1.2E2,2.1E1,1.2E2,1.8E1,1.7E1,1.25E3,1.685E3,3.9E1,4E0,3.3E1,6.53E2,9.4E1,2.6E1,4.4E1,7.6E1,1.6E1,2E0,1.6E1,1E0,1.79E2,1.071E3,3.35E2,1.35E3,1.9E1,2E1,3E0,1E0,1.4E1,1.9E1,1.86E2,4.67E2,4.2E1,5.2E1,9E0,1.7E1,2E1,2.4E1,4.8E1,2.8E1,1E0,1E0,5.4E1,1.25E2,9.36E2,1.35E2,2.6E2,7.5E1,2.36E2,1.114E3,7E0,1.2E1,1.6E1,4E0,5E0,9E0,9E0,1E1,8.2E1,1.04E2,5.4E1,4.13E2,2.3E1,1.9E1,1.7E1,3.5E1,6E0,1.1E1,9E0,1.1E1,6E0,1.8E1,8E0,4E1,1.1E1,1.7E1],"tree_param":{"num_deleted":"0","num_feature":"11","num_nodes":"87","size_leaf_vector":"1"}},{"base_weights":[2.1278886E-7,6.360314E-4,-2.0293097E-3,6.5109143E-3,5.4115715E-4,-1.3265032E-3,-5.5349465E-3,1.0611237E-3,4.8493836E-3,4.6048826E-4,5.911673E-3,-2.088126E-3,3.2617126E-3,-1.1978621E-2,-3.9935107E-3,6.1129563E-4,3.2462021E-3,6.9428835E-4,-9.981535E-4,6.965885E-3,-3.7043586E-3,1.9939085E-3,-2.3130719E-3,4.482821E-3,-1.7114446E-3,-1.3810897E-3,-5.5064633E-5,-1.0870177E-3,-5.9422203E-3,3.3815645E-3,4.725209E-5,-1.523328E-4,1.5675311E-3,1.8847532E-3,-2.1578153E-3,3.791128E-3,9.657755E-3,-4.7894457E-4,3.1799405E-5,1.3108972E-4,5.279581E-3,-5.170035E-3,-1.9723673E-3,3.015956E-3,8.234708E-3,-4.4727805E-3,1.7075384E-3,3.6536792E-5,-8.683974E-5,2.0018346E-3,-3.712338E-3,-7.6395147E-3,-2.8694735E-3,3.6345416E-4,1.650754E-4,-2.7838696E-4,2.8679238E-5,2.4249268E-4,1.6598175E-5,-3.9324496E-4,4.4156626E-4,-5.2738324E-4,-5.016143E-6,-1.7266211E-4,6.895041E-4,1.0473457E-3,3.5726596E-4,1.3662105E-4,-4.8356116E-4,5.9583044E-4,1.03106795E-4,-6.7711214E-4,2.124647E-4,-5.4509845E-4,-1.6464228E-4,9.79302E-4,1.7954972E-4,3.520467E-4,1.0246088E-3,5.8593054E-5,-5.445813E-4,3.1413333E-4,-1.084594E-6,-4.4085403E-4,2.7509342E-4,-6.3172856E-4,-2.758122E-4,-1.8112843E-4,-8.1173296E-4,-5.690888E-4,-8.291157E-5],"categories":[],"categories_nodes":[],"categories_segments":[],"categories_sizes":[],"default_left":[0,0,0,0,0,0,0,0,0,0,0,0,0,0,0,0,0,0,0,0,0,0,0,0,0,0,0,0,0,0,0,0,0,0,0,0,0,0,0,0,0,0,0,0,0,0,0,0,0,0,0,0,0,0,0,0,0,0,0,0,0,0,0,0,0,0,0,0,0,0,0,0,0,0,0,0,0,0,0,0,0,0,0,0,0,0,0,0,0,0,0],"id":1,"left_children":[1,3,5,7,9,11,13,-1,15,17,19,21,23,25,27,-1,29,31,33,35,37,39,41,43,45,-1,47,49,51,53,-1,55,57,59,61,63,65,-1,-1,67,69,71,73,75,77,79,81,-1,-1,83,85,87,89,-1,-1,-1,-1,-1,-1,-1,-1,-1,-1,-1,-1,-1,-1,-1,-1,-1,-1,-1,-1,-1,-1,-1,-1,-1,-1,-1,-1,-1,-1,-1,-1,-1,-1,-1,-1,-1,-1],"loss_changes":[5.1280824E-3,1.6830936E-3,2.3283255E-3,2.7555693E-4,1.2878805E-3,2.7709526E-3,1.5214989E-3,0E0,5.308265E-5,1.0019589E-3,4.7184702E-4,6.2809465E-4,6.938946E-4,6.546574E-4,7.2418526E-4,0E0,5.160269E-6,1.8714217E-3,1.3614048E-3,3.0522747E-4,2.3346023E-5,2.1964994E-4,6.166599E-4,4.759843E-4,2.2477956E-4,0E0,2.0270425E-6,4.3722053E-4,3.796611E-4,1.4438265E-6,0E0,1.4868665E-3,1.4968936E-3,1.7399334E-3,1.9043059E-3,3.5443736E-4,6.681797E-5,0E0,0E0,1.5383388E-4,3.1342963E-5,8.0858637E-4,6.452487E-4,5.365821E-4,2.009822E-4,6.7180605E-5,2.7135982E-5,0E0,0E0,1.3217784E-4,5.4660923E-5,1.21752964E-4,1.6222573E-4,0E0,0E0,0E0,0E0,0E0,0E0,0E0,0E0,0E0,0E0,0E0,0E0,0E0,0E0,0E0,0E0,0E0,0E0,0E0,0E0,0E0,0E0,0E0,0E0,0E0,0E0,0E0,0E0,0E0,0E0,0E0,0E0,0E0,0E0,0E0,0E0,0E0,0E0],"parents":[2147483647,0,0,1,1,2,2,3,3,4,4,5,5,6,6,8,8,9,9,10,10,11,11,12,12,13,13,14,14,16,16,17,17,18,18,19,19,20,20,21,21,22,22,23,23,24,24,26,26,27,27,28,28,29,29,31,31,32,32,33,33,34,34,35,35,36,36,39,39,40,40,41,41,42,42,43,43,44,44,45,45,46,46,49,49,50,50,51,51,52,52],"right_children":[2,4,6,8,10,12,14,-1,16,18,20,22,24,26,28,-1,30,32,34,36,38,40,42,44,46,-1,48,50,52,54,-1,56,58,60,62,64,66,-1,-1,68,70,72,74,76,78,80,82,-1,-1,84,86,88,90,-1,-1,-1,-1,-1,-1,-1,-1,-1,-1,-1,-1,-1,-1,-1,-1,-1,-1,-1,-1,-1,-1,-1,-1,-1,-1,-1,-1,-1,-1,-1,-1,-1,-1,-1,-1,-1,-1],"split_conditions":[1.1806975E2,9.775353E1,1.1947653E2,-2.0553106E-1,1.1746237E2,1.738323E6,1.2051175E2,1.0611237E-3,4.7944904E1,2.6655546E-1,1.1804058E2,4.0531483E-1,1.19991844E2,-2.3118844E-2,1.21868355E2,6.1129563E-4,6.462183E1,-1.770967E-3,2.24932E5,1.1709923E2,1.17658104E2,5.9670353E1,-3.2603544E-1,2.095735E6,2.981669E-1,-1.3810897E-3,1.199844E2,1.636692E6,2.330579E6,9.779398E1,4.725209E-5,-8.191E4,1.1543052E2,1.00158714E2,1.0886969E2,-3.2787263E-2,1.6429615E-1,-4.7894457E-4,3.1799405E-5,-9.191591E-2,7.340754E1,1.49043E6,9.72668E5,1.1856677E2,1.190153E2,1.199844E2,2.330579E6,3.6536792E-5,-8.683974E-5,1.2006177E2,1.2120053E2,1.2091773E2,2.1263424E-1,3.6345416E-4,1.650754E-4,-2.7838696E-4,2.8679238E-5,2.4249268E-4,1.6598175E-5,-3.9324496E-4,4.4156626E-4,-5.2738324E-4,-5.016143E-6,-1.7266211E-4,6.895041E-4,1.0473457E-3,3.5726596E-4,1.3662105E-4,-4.8356116E-4,5.9583044E-4,1.03106795E-4,-6.7711214E-4,2.124647E-4,-5.4509845E-4,-1.6464228E-4,9.79302E-4,1.7954972E-4,3.520467E-4,1.0246088E-3,5.8593054E-5,-5.445813E-4,3.1413333E-4,-1.084594E-6,-4.4085403E-4,2.7509342E-4,-6.3172856E-4,-2.758122E-4,-1.8112843E-4,-8.1173296E-4,-5.690888E-4,-8.291157E-5],"split_indices":[7,0,8,5,3,9,7,0,4,5,7,6,2,5,7,0,4,5,9,8,0,4,5,9,5,0,1,9,9,2,0,9,3,0,8,5,5,0,0,5,4,9,9,7,3,1,9,0,0,1,7,2,5,0,0,0,0,0,0,0,0,0,0,0,0,0,0,0,0,0,0,0,0,0,0,0,0,0,0,0,0,0,0,0,0,0,0,0,0,0,0],"split_type":[0,0,0,0,0,0,0,0,0,0,0,0,0,0,0,0,0,0,0,0,0,0,0,0,0,0,0,0,0,0,0,0,0,0,0,0,0,0,0,0,0,0,0,0,0,0,0,0,0,0,0,0,0,0,0,0,0,0,0,0,0,0,0,0,0,0,0,0,0,0,0,0,0,0,0,0,0,0,0,0,0,0,0,0,0,0,0,0,0,0,0],"sum_hessian":[3.972E3,3.025E3,9.47E2,4.7E1,2.978E3,7.9E2,1.57E2,1.2E1,3.5E1,2.935E3,4.3E1,6.78E2,1.12E2,2.9E1,1.28E2,1.8E1,1.7E1,2.53E3,4.05E2,3.9E1,4E0,3.5E1,6.43E2,9E1,2.2E1,2.5E1,4E0,5.2E1,7.6E1,1.6E1,1E0,1.285E3,1.245E3,1.16E2,2.89E2,1.9E1,2E1,3E0,1E0,2.3E1,1.2E1,6.7E1,5.76E2,6.6E1,2.4E1,1.2E1,1E1,3E0,1E0,2.4E1,2.8E1,4.8E1,2.8E1,1.3E1,3E0,1.83E2,1.102E3,7.72E2,4.73E2,3.5E1,8.1E1,1.16E2,1.73E2,7E0,1.2E1,1.7E1,3E0,1.9E1,4E0,1E1,2E0,5.5E1,1.2E1,4.8E1,5.28E2,9E0,5.7E1,8E0,1.6E1,2E0,1E1,5E0,5E0,2E0,2.2E1,6E0,2.2E1,4E0,4.4E1,1.1E1,1.7E1],"tree_param":{"num_deleted":"0","num_feature":"11","num_nodes":"91","size_leaf_vector":"1"}},{"base_weights":[3.5219625E-7,5.735016E-4,-1.8291313E-3,5.9066606E-3,4.87377E-4,-1.1919058E-3,-5.007715E-3,9.6317375E-4,4.3974197E-3,4.1427775E-4,5.354013E-3,-1.8805246E-3,2.9564488E-3,-1.0215683E-2,-3.4427184E-3,5.5338345E-3,2.9535699E-3,8.1267743E-4,-3.6135883E-4,6.317333E-3,-3.4233518E-3,-1.6345197E-3,-5.393675E-3,4.062402E-3,-1.5478192E-3,-1.14833275E-2,-5.961878E-5,-2.1305581E-4,-5.36936E-3,6.9085613E-4,4.1561974E-3,3.074498E-4,4.4889486E-5,-2.0343628E-4,1.5839292E-3,-3.624203E-3,3.0881E-5,3.4378574E-3,8.758865E-3,-4.430237E-4,3.0209432E-5,-2.4959785E-3,-2.4030723E-4,-4.5571206E-3,-1.1007374E-3,1.5360102E-3,5.8447956E-3,-5.4702087E-4,5.101141E-4,-1.2482925E-3,-6.1300606E-4,3.379653E-5,-8.2497754E-5,2.6483445E-3,-2.626046E-3,-6.895826E-3,-2.6050091E-3,2.3144326E-5,4.4919527E-4,3.5512465E-5,-6.7422877E-4,5.9547374E-4,9.989302E-5,-4.2140182E-5,-6.222729E-4,-1.6469382E-4,3.6730653E-5,-1.5755417E-4,6.2585756E-4,9.662194E-4,3.9357744E-4,-6.994676E-4,-1.9947246E-4,1.3062227E-4,-1.986469E-4,-2.732793E-4,-5.78672E-4,-9.433446E-5,5.159042E-4,2.6702494E-4,7.2697137E-4,-2.368955E-4,1.356742E-4,4.35152E-4,5.4957607E-5,-3.9947164E-4,-1.6664727E-4,-3.0256517E-4,-7.577186E-4,-5.169224E-4,-7.508103E-5],"categories":[],"categories_nodes":[],"categories_segments":[],"categories_sizes":[],"default_left":[0,0,0,0,0,0,0,0,0,0,0,0,0,0,0,0,0,0,0,0,0,0,0,0,0,0,0,0,0,0,0,0,0,0,0,0,0,0,0,0,0,0,0,0,0,0,0,0,0,0,0,0,0,0,0,0,0,0,0,0,0,0,0,0,0,0,0,0,0,0,0,0,0,0,0,0,0,0,0,0,0,0,0,0,0,0,0,0,0,0,0],"id":2,"left_children":[1,3,5,7,9,11,13,-1,15,17,19,21,23,25,27,29,31,33,35,37,39,41,43,45,47,49,51,53,55,-1,57,-1,-1,59,61,63,65,67,69,-1,-1,71,73,75,-1,77,79,-1,81,-1,-1,-1,-1,83,85,87,89,-1,-1,-1,-1,-1,-1,-1,-1,-1,-1,-1,-1,-1,-1,-1,-1,-1,-1,-1,-1,-1,-1,-1,-1,-1,-1,-1,-1,-1,-1,-1,-1,-1,-1],"loss_changes":[4.167007E-3,1.3870116E-3,1.9141808E-3,2.2750313E-4,1.0575532E-3,2.265158E-3,1.2526019E-3,0E0,4.2724656E-5,9.075569E-4,3.936647E-4,5.7801115E-4,5.691984E-4,4.6278955E-4,7.6421164E-4,7.2702533E-6,4.0718296E-6,1.5206602E-3,1.2760899E-3,2.5110145E-4,2.0093838E-5,7.632723E-4,1.5646918E-4,4.0079758E-4,1.8844678E-4,9.4714575E-5,1.800286E-6,3.3146763E-4,3.0695228E-4,0E0,1.4773439E-5,0E0,0E0,3.0630608E-3,2.814333E-3,8.87892E-4,5.035398E-4,2.9268838E-4,5.3465483E-5,0E0,0E0,8.722588E-4,6.6151464E-4,7.3913776E-5,0E0,3.551952E-4,2.2033183E-4,0E0,4.221406E-5,0E0,0E0,0E0,0E0,7.6249096E-5,2.7489761E-5,1.06286025E-4,1.3400121E-4,0E0,0E0,0E0,0E0,0E0,0E0,0E0,0E0,0E0,0E0,0E0,0E0,0E0,0E0,0E0,0E0,0E0,0E0,0E0,0E0,0E0,0E0,0E0,0E0,0E0,0E0,0E0,0E0,0E0,0E0,0E0,0E0,0E0,0E0],"parents":[2147483647,0,0,1,1,2,2,3,3,4,4,5,5,6,6,8,8,9,9,10,10,11,11,12,12,13,13,14,14,15,15,16,16,17,17,18,18,19,19,20,20,21,21,22,22,23,23,24,24,25,25,26,26,27,27,28,28,30,30,33,33,34,34,35,35,36,36,37,37,38,38,41,41,42,42,43,43,45,45,46,46,48,48,53,53,54,54,55,55,56,56],"right_children":[2,4,6,8,10,12,14,-1,16,18,20,22,24,26,28,30,32,34,36,38,40,42,44,46,48,50,52,54,56,-1,58,-1,-1,60,62,64,66,68,70,-1,-1,72,74,76,-1,78,80,-1,82,-1,-1,-1,-1,84,86,88,90,-1,-1,-1,-1,-1,-1,-1,-1,-1,-1,-1,-1,-1,-1,-1,-1,-1,-1,-1,-1,-1,-1,-1,-1,-1,-1,-1,-1,-1,-1,-1,-1,-1,-1],"split_conditions":[1.1806975E2,9.775353E1,1.1947653E2,-2.0553106E-1,1.1746237E2,1.738323E6,1.2096391E2,9.6317375E-4,4.7944904E1,1.1555146E2,1.1804058E2,1.658311E6,1.19991844E2,-2.3118844E-2,1.21868355E2,4.180392E-1,6.462183E1,1.040766E2,3.9583007E-1,1.1709923E2,1.17658104E2,1.397311E6,1.1964521E2,4.253236E-1,3.859498E-1,1.2051175E2,1.199844E2,1.622429E6,2.330579E6,6.9085613E-4,2.612E3,3.074498E-4,4.4889486E-5,2.40852E5,1.91664E5,1.063456E6,1.1627882E2,-3.2787263E-2,4.877017E-1,-4.430237E-4,3.0209432E-5,-3.3011943E-1,5.05447E-1,5.1042903E-2,-1.1007374E-3,-1.7573876E-2,-2.1946213E-1,-5.4702087E-4,8.604E3,-1.2482925E-3,-6.1300606E-4,3.379653E-5,-8.2497754E-5,5.2923787E-1,-4.2086873E-2,1.20763916E2,2.1263424E-1,2.3144326E-5,4.4919527E-4,3.5512465E-5,-6.7422877E-4,5.9547374E-4,9.989302E-5,-4.2140182E-5,-6.222729E-4,-1.6469382E-4,3.6730653E-5,-1.5755417E-4,6.2585756E-4,9.662194E-4,3.9357744E-4,-6.994676E-4,-1.9947246E-4,1.3062227E-4,-1.986469E-4,-2.732793E-4,-5.78672E-4,-9.433446E-5,5.159042E-4,2.6702494E-4,7.2697137E-4,-2.368955E-4,1.356742E-4,4.35152E-4,5.4957607E-5,-3.9947164E-4,-1.6664727E-4,-3.0256517E-4,-7.577186E-4,-5.169224E-4,-7.508103E-5],"split_indices":[7,0,8,5,3,9,7,0,4,2,7,9,2,5,7,6,4,7,6,8,0,9,2,6,6,7,1,9,9,0,10,0,0,9,9,9,7,5,6,0,0,5,6,5,0,5,5,0,10,0,0,0,0,6,5,0,5,0,0,0,0,0,0,0,0,0,0,0,0,0,0,0,0,0,0,0,0,0,0,0,0,0,0,0,0,0,0,0,0,0,0],"split_type":[0,0,0,0,0,0,0,0,0,0,0,0,0,0,0,0,0,0,0,0,0,0,0,0,0,0,0,0,0,0,0,0,0,0,0,0,0,0,0,0,0,0,0,0,0,0,0,0,0,0,0,0,0,0,0,0,0,0,0,0,0,0,0,0,0,0,0,0,0,0,0,0,0,0,0,0,0,0,0,0,0,0,0,0,0,0,0,0,0,0,0],"sum_hessian":[3.972E3,3.025E3,9.47E2,4.7E1,2.978E3,7.9E2,1.57E2,1.2E1,3.5E1,2.935E3,4.3E1,6.78E2,1.12E2,3.5E1,1.22E2,1.8E1,1.7E1,1.939E3,9.96E2,3.9E1,4E0,6.35E2,4.3E1,9E1,2.2E1,3.1E1,4E0,4.6E1,7.6E1,7E0,1.1E1,1.6E1,1E0,8.37E2,1.102E3,1.06E2,8.9E2,1.9E1,2E1,3E0,1E0,3.92E2,2.43E2,3.9E1,4E0,3.8E1,5.2E1,7E0,1.5E1,2.5E1,6E0,3E0,1E0,2.1E1,2.5E1,4.8E1,2.8E1,1E0,1E1,7.72E2,6.5E1,1.29E2,9.73E2,4.8E1,5.8E1,1.48E2,7.42E2,7E0,1.2E1,1.6E1,4E0,3.8E1,3.54E2,1.29E2,1.14E2,1.7E1,2.2E1,2.3E1,1.5E1,1.7E1,3.5E1,3E0,1.2E1,1.1E1,1E1,9E0,1.6E1,8E0,4E1,1.1E1,1.7E1],"tree_param":{"num_deleted":"0","num_feature":"11","num_nodes":"91","size_leaf_vector":"1"}},{"base_weights":[-3.4560568E-7,5.171951E-4,-1.6523263E-3,5.367634E-3,4.3886737E-4,-1.0754362E-3,-4.5299707E-3,8.742654E-3,3.9997757E-3,6.557245E-4,-9.331528E-4,-1.6967721E-3,2.6675945E-3,-9.24717E-3,-3.1124977E-3,9.3146815E-4,3.731001E-4,5.0416715E-3,2.6777873E-3,-1.3881808E-4,1.4659675E-3,-1.5530005E-3,3.3283655E-3,2.3626783E-3,-1.9078008E-3,3.6717174E-3,-1.4212216E-3,-1.039316E-2,-6.339715E-5,-1.9336746E-4,-4.8538824E-3,6.3040614E-4,3.7799391E-3,2.7851337E-3,4.264501E-5,-2.5484012E-3,2.582295E-4,1.8444054E-3,-8.002634E-4,1.0589647E-2,-1.7561426E-3,7.418872E-4,7.4841105E-4,2.703831E-4,3.8137657E-3,-3.7024727E-3,-1.1406653E-3,2.762058E-3,8.09652E-3,-3.7632005E-3,1.4757734E-3,-1.1282644E-2,-5.604627E-4,3.126179E-5,-7.837287E-5,2.4057876E-3,-2.3852154E-3,-6.2278816E-3,-2.364922E-3,2.1987113E-5,4.0835934E-4,3.0115593E-4,1.2963601E-4,-1.003249E-4,-7.748601E-4,2.0704864E-4,-4.4360968E-5,3.838272E-4,1.4012435E-4,2.00228E-4,-2.1836364E-4,-5.5460103E-5,1.2929416E-3,-4.3024082E-4,-6.219099E-5,5.828549E-4,4.611223E-6,2.0458335E-4,-8.219254E-5,4.958279E-4,-6.114273E-5,-1.8327529E-4,-4.7281012E-4,2.9046877E-4,-2.0006322E-4,9.053517E-4,2.0035764E-4,8.765381E-4,2.4992862E-4,4.5641904E-5,-4.5718966E-4,2.7664934E-4,-6.090901E-6,-7.4826967E-4,-1.2288799E-3,3.9526308E-4,4.9961465E-5,-1.3666261E-4,-3.459684E-4,-2.756705E-4,-6.837948E-4,-4.879803E-4,-7.844687E-5],"categories":[],"categories_nodes":[],"categories_segments":[],"categories_sizes":[],"default_left":[0,0,0,0,0,0,0,0,0,0,0,0,0,0,0,0,0,0,0,0,0,0,0,0,0,0,0,0,0,0,0,0,0,0,0,0,0,0,0,0,0,0,0,0,0,0,0,0,0,0,0,0,0,0,0,0,0,0,0,0,0,0,0,0,0,0,0,0,0,0,0,0,0,0,0,0,0,0,0,0,0,0,0,0,0,0,0,0,0,0,0,0,0,0,0,0,0,0,0,0,0,0,0],"id":3,"left_children":[1,3,5,7,9,11,13,15,17,19,21,23,25,27,29,-1,-1,31,33,35,37,39,41,43,45,47,49,51,53,55,57,-1,59,61,-1,63,65,67,69,71,73,-1,75,77,79,81,83,85,87,89,91,93,-1,-1,-1,95,97,99,101,-1,-1,-1,-1,-1,-1,-1,-1,-1,-1,-1,-1,-1,-1,-1,-1,-1,-1,-1,-1,-1,-1,-1,-1,-1,-1,-1,-1,-1,-1,-1,-1,-1,-1,-1,-1,-1,-1,-1,-1,-1,-1,-1,-1],"loss_changes":[3.3976394E-3,1.1472938E-3,1.5688883E-3,1.8662564E-4,8.8696065E-4,1.8441385E-3,1.0276856E-3,2.5155023E-6,3.6084908E-5,1.6566301E-3,1.0802564E-3,5.8618025E-4,4.6915945E-4,3.782236E-4,6.243108E-4,0E0,0E0,6.4342166E-6,3.162393E-6,1.244393E-3,1.094094E-3,8.9673616E-4,5.432203E-4,1.0219634E-4,8.851611E-4,3.4391764E-4,1.6160175E-4,7.306319E-5,1.599285E-6,2.7349513E-4,2.4859852E-4,0E0,1.2074481E-5,1.8265855E-6,0E0,1.4706849E-3,1.4216452E-3,9.595193E-4,7.138564E-4,1.6362051E-4,1.0110323E-3,0E0,1.1746782E-4,3.0771615E-5,1.04325416E-4,3.6143884E-4,1.585218E-3,3.4930126E-4,3.4249388E-5,4.6447778E-5,2.1986207E-5,7.4536074E-6,0E0,0E0,0E0,6.2893305E-5,2.3727393E-5,8.491438E-5,1.11436864E-4,0E0,0E0,0E0,0E0,0E0,0E0,0E0,0E0,0E0,0E0,0E0,0E0,0E0,0E0,0E0,0E0,0E0,0E0,0E0,0E0,0E0,0E0,0E0,0E0,0E0,0E0,0E0,0E0,0E0,0E0,0E0,0E0,0E0,0E0,0E0,0E0,0E0,0E0,0E0,0E0,0E0,0E0,0E0,0E0],"parents":[2147483647,0,0,1,1,2,2,3,3,4,4,5,5,6,6,7,7,8,8,9,9,10,10,11,11,12,12,13,13,14,14,17,17,18,18,19,19,20,20,21,21,22,22,23,23,24,24,25,25,26,26,27,27,28,28,29,29,30,30,32,32,33,33,35,35,36,36,37,37,38,38,39,39,40,40,42,42,43,43,44,44,45,45,46,46,47,47,48,48,49,49,50,50,51,51,55,55,56,56,57,57,58,58],"right_children":[2,4,6,8,10,12,14,16,18,20,22,24,26,28,30,-1,-1,32,34,36,38,40,42,44,46,48,50,52,54,56,58,-1,60,62,-1,64,66,68,70,72,74,-1,76,78,80,82,84,86,88,90,92,94,-1,-1,-1,96,98,100,102,-1,-1,-1,-1,-1,-1,-1,-1,-1,-1,-1,-1,-1,-1,-1,-1,-1,-1,-1,-1,-1,-1,-1,-1,-1,-1,-1,-1,-1,-1,-1,-1,-1,-1,-1,-1,-1,-1,-1,-1,-1,-1,-1,-1],"split_conditions":[1.1806975E2,9.775353E1,1.1947653E2,-2.0553106E-1,2.6655546E-1,1.738323E6,1.2096391E2,9.761974E1,4.7944904E1,-1.770967E-3,4.8788542E-1,1.1722475E2,1.19991844E2,-2.3118844E-2,1.21868355E2,9.3146815E-4,3.731001E-4,4.180392E-1,6.462183E1,-8.191E4,6.611721E1,-2.51657E5,1.47009E5,3.238925E1,1.17828354E2,2.175503E6,2.981669E-1,1.2051175E2,1.199844E2,1.622429E6,2.330579E6,6.3040614E-4,2.612E3,9.779398E1,4.264501E-5,9.8828156E1,1.09949585E2,3.3149E4,2.32386E5,9.9096466E1,1.05928276E2,7.418872E-4,3.7521642E-1,1.1685432E2,1.326432E6,1.1755304E2,1.18834015E2,1.17828354E2,4.4548604E-1,1.199844E2,2.330579E6,1.534986E6,-5.604627E-4,3.126179E-5,-7.837287E-5,5.2923787E-1,1.784055E6,1.20763916E2,1.9915652E-1,2.1987113E-5,4.0835934E-4,3.0115593E-4,1.2963601E-4,-1.003249E-4,-7.748601E-4,2.0704864E-4,-4.4360968E-5,3.838272E-4,1.4012435E-4,2.00228E-4,-2.1836364E-4,-5.5460103E-5,1.2929416E-3,-4.3024082E-4,-6.219099E-5,5.828549E-4,4.611223E-6,2.0458335E-4,-8.219254E-5,4.958279E-4,-6.114273E-5,-1.8327529E-4,-4.7281012E-4,2.9046877E-4,-2.0006322E-4,9.053517E-4,2.0035764E-4,8.765381E-4,2.4992862E-4,4.5641904E-5,-4.5718966E-4,2.7664934E-4,-6.090901E-6,-7.4826967E-4,-1.2288799E-3,3.9526308E-4,4.9961465E-5,-1.3666261E-4,-3.459684E-4,-2.756705E-4,-6.837948E-4,-4.879803E-4,-7.844687E-5],"split_indices":[7,0,8,5,5,9,7,1,4,5,5,2,2,5,7,0,0,6,4,9,4,9,9,4,2,9,5,7,1,9,9,0,10,2,0,0,7,9,9,0,7,0,6,1,9,2,7,2,5,1,9,9,0,0,0,6,9,0,5,0,0,0,0,0,0,0,0,0,0,0,0,0,0,0,0,0,0,0,0,0,0,0,0,0,0,0,0,0,0,0,0,0,0,0,0,0,0,0,0,0,0,0,0],"split_type":[0,0,0,0,0,0,0,0,0,0,0,0,0,0,0,0,0,0,0,0,0,0,0,0,0,0,0,0,0,0,0,0,0,0,0,0,0,0,0,0,0,0,0,0,0,0,0,0,0,0,0,0,0,0,0,0,0,0,0,0,0,0,0,0,0,0,0,0,0,0,0,0,0,0,0,0,0,0,0,0,0,0,0,0,0,0,0,0,0,0,0,0,0,0,0,0,0,0,0,0,0,0,0],"sum_hessian":[3.972E3,3.025E3,9.47E2,4.7E1,2.978E3,7.9E2,1.57E2,1.2E1,3.5E1,2.572E3,4.06E2,6.78E2,1.12E2,3.5E1,1.22E2,1E1,2E0,1.8E1,1.7E1,1.299E3,1.273E3,3.55E2,5.1E1,3.3E1,6.45E2,9E1,2.2E1,3.1E1,4E0,4.6E1,7.6E1,7E0,1.1E1,1.6E1,1E0,1.83E2,1.116E3,1.091E3,1.82E2,5E0,3.5E2,1.9E1,3.2E1,1.4E1,1.9E1,1.92E2,4.53E2,7.6E1,1.4E1,1.2E1,1E1,2.5E1,6E0,3E0,1E0,2.1E1,2.5E1,4.8E1,2.8E1,1E0,1E1,1.3E1,3E0,1.42E2,4.1E1,3.11E2,8.05E2,1.97E2,8.94E2,6E1,1.22E2,1E0,4E0,1.07E2,2.43E2,3E0,2.9E1,5E0,9E0,1.5E1,4E0,6.9E1,1.23E2,7.9E1,3.74E2,7E0,6.9E1,1.2E1,2E0,2E0,1E1,5E0,5E0,7E0,1.8E1,1.1E1,1E1,1.4E1,1.1E1,8E0,4E1,1E1,1.8E1],"tree_param":{"num_deleted":"0","num_feature":"11","num_nodes":"103","size_leaf_vector":"1"}},{"base_weights":[3.5371053E-7,1.7883265E-4,-3.921027E-3,7.783746E-4,-4.7762395E-4,-7.978006E-3,-2.7586278E-3,2.8964304E-4,2.121379E-3,-7.018106E-4,3.5440281E-3,-9.821508E-3,1.6281489E-4,-6.254845E-4,-4.289814E-3,1.1560505E-3,-1.5630422E-3,-1.2442443E-2,2.3118854E-3,-1.6125386E-4,-1.6630249E-3,9.6066634E-4,2.5635725E-3,-6.444908E-4,-1.1122513E-3,1.0662338E-3,-1.6982945E-4,1.9267626E-3,-2.7593966E-3,-5.6246747E-3,-2.0414912E-3,3.0878696E-4,4.6040476E-3,-5.571154E-3,-2.1486981E-4,-6.208753E-5,-1.4309225E-3,4.369982E-3,1.2584514E-3,-8.235517E-4,1.0547922E-3,-3.8558573E-3,-9.596464E-4,8.281653E-4,5.2204696E-3,2.3140339E-4,3.5386704E-5,4.9693766E-4,3.6726324E-3,-1.5194439E-3,-3.7640934E-3,-1.203793E-4,-5.990891E-3,-4.28219E-3,-5.9499725E-4,-8.967746E-5,1.7519628E-4,8.5988315E-4,2.4146408E-4,-5.991968E-4,-1.3897024E-4,2.8197613E-4,-2.8894108E-4,-2.8929002E-5,5.210579E-4,-8.855238E-5,2.5568213E-4,-4.2676576E-4,-3.45111E-5,1.7787956E-4,-1.5167404E-4,-2.752392E-4,-6.2155275E-4,-5.420481E-4,-5.092363E-5,1.5586217E-4,-4.090287E-4,7.715057E-4,2.7130332E-4,4.475662E-4,-3.9114166E-5,4.0119488E-4,-2.9923394E-6,6.6704483E-6,-2.4778035E-4,-4.013369E-4,-1.2630192E-4,-6.255392E-4,-2.6238046E-4,-2.9987833E-4,-5.479203E-4,1.642015E-4,-1.0863532E-4],"categories":[],"categories_nodes":[],"categories_segments":[],"categories_sizes":[],"default_left":[0,0,0,0,0,0,0,0,0,0,0,0,0,0,0,0,0,0,0,0,0,0,0,0,0,0,0,0,0,0,0,0,0,0,0,0,0,0,0,0,0,0,0,0,0,0,0,0,0,0,0,0,0,0,0,0,0,0,0,0,0,0,0,0,0,0,0,0,0,0,0,0,0,0,0,0,0,0,0,0,0,0,0,0,0,0,0,0,0,0,0,0,0],"id":4,"left_children":[1,3,5,7,9,11,13,15,17,19,21,23,25,27,29,31,33,35,37,39,41,-1,43,-1,-1,45,-1,47,49,51,53,55,57,59,61,-1,-1,63,65,67,69,71,73,75,77,-1,-1,79,81,83,85,-1,87,89,91,-1,-1,-1,-1,-1,-1,-1,-1,-1,-1,-1,-1,-1,-1,-1,-1,-1,-1,-1,-1,-1,-1,-1,-1,-1,-1,-1,-1,-1,-1,-1,-1,-1,-1,-1,-1,-1,-1],"loss_changes":[2.7813397E-3,1.4963439E-3,7.9383E-4,1.3035899E-3,1.6388923E-3,5.718884E-4,4.4152536E-4,2.3421594E-3,1.4992515E-3,8.93428E-4,5.4601044E-4,6.449851E-5,1.5261672E-5,3.2120044E-4,2.2561196E-4,2.9024128E-3,2.5114887E-3,1.4559389E-4,1.130569E-3,8.884025E-4,9.510397E-4,0E0,3.829836E-4,0E0,0E0,4.5144875E-6,0E0,6.5574706E-5,3.414553E-5,7.211906E-5,9.7928E-5,1.391701E-3,1.6934932E-3,1.9754772E-4,2.840717E-3,0E0,0E0,6.9474056E-4,9.7098225E-4,1.1750567E-3,7.269375E-4,3.734643E-4,9.415661E-4,1.931964E-4,1.8548447E-4,0E0,0E0,5.8285383E-5,1.5196099E-5,2.4486886E-5,5.529786E-6,0E0,2.3663975E-5,2.0041043E-6,2.3767196E-5,0E0,0E0,0E0,0E0,0E0,0E0,0E0,0E0,0E0,0E0,0E0,0E0,0E0,0E0,0E0,0E0,0E0,0E0,0E0,0E0,0E0,0E0,0E0,0E0,0E0,0E0,0E0,0E0,0E0,0E0,0E0,0E0,0E0,0E0,0E0,0E0,0E0,0E0],"parents":[2147483647,0,0,1,1,2,2,3,3,4,4,5,5,6,6,7,7,8,8,9,9,10,10,11,11,12,12,13,13,14,14,15,15,16,16,17,17,18,18,19,19,20,20,22,22,25,25,27,27,28,28,29,29,30,30,31,31,32,32,33,33,34,34,37,37,38,38,39,39,40,40,41,41,42,42,43,43,44,44,47,47,48,48,49,49,50,50,52,52,53,53,54,54],"right_children":[2,4,6,8,10,12,14,16,18,20,22,24,26,28,30,32,34,36,38,40,42,-1,44,-1,-1,46,-1,48,50,52,54,56,58,60,62,-1,-1,64,66,68,70,72,74,76,78,-1,-1,80,82,84,86,-1,88,90,92,-1,-1,-1,-1,-1,-1,-1,-1,-1,-1,-1,-1,-1,-1,-1,-1,-1,-1,-1,-1,-1,-1,-1,-1,-1,-1,-1,-1,-1,-1,-1,-1,-1,-1,-1,-1,-1,-1],"split_conditions":[1.1933509E2,1.1555146E2,1.2065841E2,5.62484E5,1.784055E6,-2.3118844E-2,1.21868355E2,2.40852E5,1.10789215E2,1.1750656E2,1.17828354E2,1.534986E6,1.199844E2,1.622429E6,2.330579E6,1.0085475E2,1.08165344E2,1.0945659E2,1.14088196E2,1.1745246E2,1.1713395E2,9.6066634E-4,2.095735E6,-6.444908E-4,-1.1122513E-3,1.1989699E2,-1.6982945E-4,1.2060049E2,1.784055E6,1.2091773E2,2.1263424E-1,1.7657967E-2,1.0426496E2,4.686423E-1,1.09664894E2,-6.208753E-5,-1.4309225E-3,4.2781287E-1,1.1420762E2,3.9583007E-1,1.9915652E-1,2.579848E-1,-2.6830807E-1,1.199844E2,6.925616E1,2.3140339E-4,3.5386704E-5,1.480954E6,6.925616E1,4.153443E1,4.7824E4,-1.203793E-4,4.9812198E-1,1.21669655E2,5.2813282E1,-8.967746E-5,1.7519628E-4,8.5988315E-4,2.4146408E-4,-5.991968E-4,-1.3897024E-4,2.8197613E-4,-2.8894108E-4,-2.8929002E-5,5.210579E-4,-8.855238E-5,2.5568213E-4,-4.2676576E-4,-3.45111E-5,1.7787956E-4,-1.5167404E-4,-2.752392E-4,-6.2155275E-4,-5.420481E-4,-5.092363E-5,1.5586217E-4,-4.090287E-4,7.715057E-4,2.7130332E-4,4.475662E-4,-3.9114166E-5,4.0119488E-4,-2.9923394E-6,6.6704483E-6,-2.4778035E-4,-4.013369E-4,-1.2630192E-4,-6.255392E-4,-2.6238046E-4,-2.9987833E-4,-5.479203E-4,1.642015E-4,-1.0863532E-4],"split_indices":[8,2,7,9,9,5,7,9,7,2,2,9,1,9,9,8,0,0,0,7,8,0,9,0,0,2,0,0,9,2,5,5,3,5,0,0,0,6,8,6,5,5,5,1,4,0,0,9,4,4,10,0,6,0,4,0,0,0,0,0,0,0,0,0,0,0,0,0,0,0,0,0,0,0,0,0,0,0,0,0,0,0,0,0,0,0,0,0,0,0,0,0,0],"split_type":[0,0,0,0,0,0,0,0,0,0,0,0,0,0,0,0,0,0,0,0,0,0,0,0,0,0,0,0,0,0,0,0,0,0,0,0,0,0,0,0,0,0,0,0,0,0,0,0,0,0,0,0,0,0,0,0,0,0,0,0,0,0,0,0,0,0,0,0,0,0,0,0,0,0,0,0,0,0,0,0,0,0,0,0,0,0,0,0,0,0,0,0,0],"sum_hessian":[3.972E3,3.8E3,1.72E2,1.986E3,1.814E3,3.7E1,1.35E2,1.457E3,5.29E2,1.719E3,9.5E1,3E1,7E0,5.7E1,7.8E1,9.93E2,4.64E2,6E0,5.23E2,1.101E3,6.18E2,1.2E1,8.3E1,1E1,2E1,5E0,2E0,2.6E1,3.1E1,4.8E1,3E1,7.98E2,1.95E2,1.16E2,3.48E2,1E0,5E0,1.76E2,3.47E2,7.13E2,3.88E2,1.49E2,4.69E2,5.1E1,3.2E1,1E0,4E0,1.5E1,1.1E1,1.5E1,1.6E1,4E0,4.4E1,1.1E1,1.9E1,4.35E2,3.63E2,6.8E1,1.27E2,1.05E2,1.1E1,1.63E2,1.85E2,2.7E1,1.49E2,1.31E2,2.16E2,8.6E1,6.27E2,3.03E2,8.5E1,1.03E2,4.6E1,4.2E1,4.27E2,4.5E1,6E0,1.5E1,1.7E1,2E0,1.3E1,1E1,1E0,6E0,9E0,1.4E1,2E0,4E1,4E0,7E0,4E0,3E0,1.6E1],"tree_param":{"num_deleted":"0","num_feature":"11","num_nodes":"93","size_leaf_vector":"1"}},{"base_weights":[-6.8567266E-7,3.3145677E-4,-1.7374044E-3,2.5861987E-4,5.5352566E-3,-2.752362E-3,1.901507E-4,4.9723024E-3,1.8879393E-4,2.7225956E-3,7.5941263E-3,-2.0644825E-3,-5.272001E-3,-7.363218E-3,8.1560004E-4,8.0515194E-4,3.7222435E-3,3.2771323E-4,-1.996936E-3,3.492414E-4,4.848441E-3,1.6311485E-4,7.7673993E-3,-2.8154699E-3,9.89641E-5,-9.631999E-3,-3.7838842E-3,-1.1219259E-3,-8.6205004E-4,2.1196695E-3,-1.3797319E-3,4.6782913E-3,2.5062908E-3,5.602582E-4,-7.57098E-4,-3.710891E-3,1.8927442E-3,-2.4920033E-4,1.4588145E-4,6.854402E-4,2.0344069E-3,9.4777206E-4,5.995337E-4,3.638936E-3,-3.0770316E-3,2.1671583E-3,-1.7465778E-3,-4.7585228E-4,-1.0151047E-3,-2.0115646E-3,-5.714882E-3,-4.8653615E-6,-2.1708714E-4,-2.0871137E-4,5.462418E-3,-3.6064787E-3,4.648233E-4,5.4886966E-4,3.167986E-4,2.6163633E-4,3.1752945E-5,1.7332522E-5,2.4608296E-4,8.8652334E-4,-9.9302444E-5,1.7337284E-4,-4.1603303E-4,-9.506942E-4,3.3354305E-4,-7.9751706E-5,4.9849565E-5,2.4275114E-4,3.444194E-6,4.7629644E-4,1.5623147E-4,-6.850729E-4,-2.2951793E-4,5.2059357E-5,3.5655283E-4,-4.0288447E-4,3.3168006E-5,-4.635432E-4,-1.4567282E-4,-2.6790734E-4,-6.177844E-4,3.0682978E-4,-1.412369E-4,8.775848E-4,7.589944E-5,-4.6842196E-4,-4.4370503E-5,1.9178755E-4,-1.3020805E-4],"categories":[],"categories_nodes":[],"categories_segments":[],"categories_sizes":[],"default_left":[0,0,0,0,0,0,0,0,0,0,0,0,0,0,0,0,0,0,0,0,0,0,0,0,0,0,0,0,0,0,0,0,0,0,0,0,0,0,0,0,0,0,0,0,0,0,0,0,0,0,0,0,0,0,0,0,0,0,0,0,0,0,0,0,0,0,0,0,0,0,0,0,0,0,0,0,0,0,0,0,0,0,0,0,0,0,0,0,0,0,0,0,0],"id":5,"left_children":[1,3,5,7,9,11,13,15,17,19,21,23,25,27,29,-1,31,33,35,37,39,-1,41,43,45,47,49,51,-1,53,55,57,59,61,63,65,67,69,-1,-1,71,-1,-1,73,75,77,79,-1,-1,81,83,-1,-1,85,87,89,91,-1,-1,-1,-1,-1,-1,-1,-1,-1,-1,-1,-1,-1,-1,-1,-1,-1,-1,-1,-1,-1,-1,-1,-1,-1,-1,-1,-1,-1,-1,-1,-1,-1,-1,-1,-1],"loss_changes":[2.2923532E-3,1.263008E-3,1.2486981E-3,1.0822524E-3,2.4570595E-4,7.1359705E-4,1.0500646E-3,1.5479198E-4,9.85663E-4,1.042598E-4,1.41940545E-5,5.364367E-4,5.4100226E-4,1.2372865E-4,5.8981194E-4,0E0,3.0125084E-5,7.700921E-4,1.3003706E-3,7.6677E-6,4.814862E-5,0E0,1.8947758E-5,4.2481243E-4,3.3204188E-4,7.3465053E-6,2.2122363E-4,4.3975956E-6,0E0,1.0051717E-3,3.1794293E-4,5.8671285E-6,3.5058401E-6,1.8476181E-3,1.2324208E-3,3.3756148E-4,1.0184799E-3,3.6773522E-6,0E0,0E0,4.6335645E-6,0E0,0E0,1.5900558E-5,6.805882E-4,9.2546616E-5,2.1952066E-4,0E0,0E0,4.7112655E-5,2.8423965E-5,0E0,0E0,3.0805217E-4,8.1931567E-4,1.1722435E-4,1.1289556E-4,0E0,0E0,0E0,0E0,0E0,0E0,0E0,0E0,0E0,0E0,0E0,0E0,0E0,0E0,0E0,0E0,0E0,0E0,0E0,0E0,0E0,0E0,0E0,0E0,0E0,0E0,0E0,0E0,0E0,0E0,0E0,0E0,0E0,0E0,0E0,0E0],"parents":[2147483647,0,0,1,1,2,2,3,3,4,4,5,5,6,6,7,7,8,8,9,9,10,10,11,11,12,12,13,13,14,14,16,16,17,17,18,18,19,19,20,20,22,22,23,23,24,24,25,25,26,26,27,27,29,29,30,30,31,31,32,32,33,33,34,34,35,35,36,36,37,37,40,40,43,43,44,44,45,45,46,46,49,49,50,50,53,53,54,54,55,55,56,56],"right_children":[2,4,6,8,10,12,14,16,18,20,22,24,26,28,30,-1,32,34,36,38,40,-1,42,44,46,48,50,52,-1,54,56,58,60,62,64,66,68,70,-1,-1,72,-1,-1,74,76,78,80,-1,-1,82,84,-1,-1,86,88,90,92,-1,-1,-1,-1,-1,-1,-1,-1,-1,-1,-1,-1,-1,-1,-1,-1,-1,-1,-1,-1,-1,-1,-1,-1,-1,-1,-1,-1,-1,-1,-1,-1,-1,-1,-1,-1],"split_conditions":[1.18834015E2,1.534986E6,1.4043868E-1,9.775353E1,1.1719227E2,1.1956693E2,1.046397E6,-2.0553106E-1,1.17524574E2,1.784055E6,3.1269201E1,1.1924229E2,1.2051175E2,1.1834981E2,1.2003185E2,8.0515194E-4,4.7944904E1,2.3188105E-1,1.17828354E2,2.623E4,1.17828354E2,1.6311485E-4,1.1790868E2,-5.8756536E-1,1.1972305E2,-1.3888334E-1,1.20763916E2,1.1832156E2,-8.6205004E-4,1.1821713E2,4.829691E-1,9.736136E1,6.462183E1,1.3587576E-1,-2.51657E5,-2.5914028E-1,-3.1161422E-1,1.1811136E2,1.4588145E-4,6.854402E-4,1.182454E2,9.4777206E-4,5.995337E-4,2.4888186E1,-2.547441E-1,1.1890026E2,1.738323E6,-4.7585228E-4,-1.0151047E-3,1.202352E2,1.585016E6,-4.8653615E-6,-2.1708714E-4,2.3461185E-1,5.2040476E-1,1.933366E6,1.2201417E2,5.4886966E-4,3.167986E-4,2.6163633E-4,3.1752945E-5,1.7332522E-5,2.4608296E-4,8.8652334E-4,-9.9302444E-5,1.7337284E-4,-4.1603303E-4,-9.506942E-4,3.3354305E-4,-7.9751706E-5,4.9849565E-5,2.4275114E-4,3.444194E-6,4.7629644E-4,1.5623147E-4,-6.850729E-4,-2.2951793E-4,5.2059357E-5,3.5655283E-4,-4.0288447E-4,3.3168006E-5,-4.635432E-4,-1.4567282E-4,-2.6790734E-4,-6.177844E-4,3.0682978E-4,-1.412369E-4,8.775848E-4,7.589944E-5,-4.6842196E-4,-4.4370503E-5,1.9178755E-4,-1.3020805E-4],"split_indices":[7,9,5,0,8,8,9,5,2,9,4,3,7,0,3,0,4,5,2,10,2,0,0,5,3,5,0,0,0,8,6,8,4,5,9,5,5,0,0,0,0,0,0,4,5,8,9,0,0,2,9,0,0,5,6,9,7,0,0,0,0,0,0,0,0,0,0,0,0,0,0,0,0,0,0,0,0,0,0,0,0,0,0,0,0,0,0,0,0,0,0,0,0],"split_type":[0,0,0,0,0,0,0,0,0,0,0,0,0,0,0,0,0,0,0,0,0,0,0,0,0,0,0,0,0,0,0,0,0,0,0,0,0,0,0,0,0,0,0,0,0,0,0,0,0,0,0,0,0,0,0,0,0,0,0,0,0,0,0,0,0,0,0,0,0,0,0,0,0,0,0,0,0,0,0,0,0,0,0,0,0,0,0,0,0,0,0,0,0],"sum_hessian":[3.972E3,3.335E3,6.37E2,3.29E3,4.5E1,4.17E2,2.2E2,4.7E1,3.243E3,2E1,2.5E1,3.29E2,8.8E1,1.6E1,2.04E2,1.2E1,3.5E1,3.05E3,1.93E2,1E1,1E1,1E0,2.4E1,2.44E2,8.5E1,2.1E1,6.7E1,3E0,1.3E1,1.28E2,7.6E1,1.8E1,1.7E1,2.512E3,5.38E2,1.34E2,5.9E1,7E0,3E0,5E0,5E0,1E1,1.4E1,9E0,2.35E2,4E1,4.5E1,3E0,1.8E1,3.6E1,3.1E1,2E0,1E0,7.6E1,5.2E1,3.4E1,4.2E1,1E1,8E0,1.6E1,1E0,2.088E3,4.24E2,1.2E1,5.26E2,1E1,1.24E2,6E0,5.3E1,4E0,3E0,4E0,1E0,5E0,4E0,3.9E1,1.96E2,1.9E1,2.1E1,2.1E1,2.4E1,5E0,3.1E1,5E0,2.6E1,2E1,5.6E1,3E1,2.2E1,2.5E1,9E0,2.3E1,1.9E1],"tree_param":{"num_deleted":"0","num_feature":"11","num_nodes":"93","size_leaf_vector":"1"}},{"base_weights":[-2.9798517E-7,5.5263797E-4,-8.910987E-4,4.5230146E-3,4.731657E-4,-6.046972E-4,-3.3597501E-3,7.034397E-3,3.0474986E-3,-3.2767357E-4,8.892223E-4,-3.263639E-3,-2.5143402E-4,-6.9529847E-3,-2.2807566E-3,7.443508E-4,2.6440463E-4,4.2341687E-3,1.5961928E-3,2.9422006E-5,-5.622868E-3,4.8171147E-3,5.137463E-4,-9.399287E-3,-2.370188E-3,-5.433685E-4,2.4197942E-3,-7.809564E-3,-8.0280166E-5,-3.769352E-5,-3.6202788E-3,4.512412E-3,-1.0886055E-5,2.3579143E-3,2.7999157E-4,-1.0824756E-3,1.2722297E-3,-4.3122056E-3,-9.2231476E-4,8.744138E-3,2.556797E-3,-7.449548E-4,1.2129233E-3,7.37555E-4,-1.1979595E-3,2.2300163E-3,-3.148982E-3,1.1858701E-3,-1.2215435E-3,8.1548624E-4,1.6395041E-3,-8.467234E-3,-4.2511406E-4,2.3775554E-5,-6.762115E-5,1.980891E-3,-1.7442768E-3,-4.639967E-3,-1.7725204E-3,4.5510427E-5,4.7525586E-4,2.552871E-4,3.01653E-5,1.2397293E-4,-8.658626E-6,-1.4476037E-4,1.0123155E-3,2.0743802E-4,-4.946079E-4,-2.0456291E-4,-8.375446E-4,1.1204634E-3,6.8746525E-4,8.163324E-5,9.376611E-4,3.211884E-4,-1.3210751E-4,-3.0185244E-4,1.5930271E-4,-4.490353E-4,3.1671202E-4,4.6048514E-4,-8.427878E-5,-4.254107E-4,-1.11832946E-4,-6.7238856E-5,2.1834006E-4,3.3476323E-4,-1.4658847E-4,4.1370913E-5,4.1142965E-4,-2.2795776E-4,-8.6235564E-4,3.2220592E-4,4.4680863E-5,-2.9156264E-4,-9.526431E-5,-9.909513E-5,-4.9423025E-4,-3.602107E-4,-4.5432273E-5],"categories":[],"categories_nodes":[],"categories_segments":[],"categories_sizes":[],"default_left":[0,0,0,0,0,0,0,0,0,0,0,0,0,0,0,0,0,0,0,0,0,0,0,0,0,0,0,0,0,0,0,0,0,0,0,0,0,0,0,0,0,0,0,0,0,0,0,0,0,0,0,0,0,0,0,0,0,0,0,0,0,0,0,0,0,0,0,0,0,0,0,0,0,0,0,0,0,0,0,0,0,0,0,0,0,0,0,0,0,0,0,0,0,0,0,0,0,0,0,0,0],"id":6,"left_children":[1,3,5,7,9,11,13,15,17,19,21,23,25,27,29,-1,-1,31,33,35,37,39,41,43,45,47,49,51,53,55,57,59,-1,61,63,65,67,69,-1,71,73,75,77,79,-1,81,83,85,87,-1,89,91,-1,-1,-1,93,95,97,99,-1,-1,-1,-1,-1,-1,-1,-1,-1,-1,-1,-1,-1,-1,-1,-1,-1,-1,-1,-1,-1,-1,-1,-1,-1,-1,-1,-1,-1,-1,-1,-1,-1,-1,-1,-1,-1,-1,-1,-1,-1,-1],"loss_changes":[1.957416E-3,7.7155104E-4,1.074061E-3,1.5643076E-4,8.016241E-4,1.2813325E-3,5.9672014E-4,1.0853342E-5,4.8352522E-5,1.5563684E-3,2.3321803E-3,8.5482607E-4,9.417821E-4,2.1130557E-4,3.6943343E-4,0E0,0E0,2.1034328E-5,1.5381065E-5,1.0681846E-3,2.0560285E-4,1.2025749E-3,1.273463E-3,5.319591E-4,5.1217055E-4,1.277375E-3,5.1915704E-4,3.889308E-5,1.1084103E-6,1.6536469E-4,1.3685413E-4,1.3426674E-5,0E0,3.238736E-6,2.5700735E-6,1.6839824E-3,1.8308868E-3,3.5125273E-4,0E0,1.5296508E-4,1.0487437E-3,1.1828042E-3,1.5006104E-3,7.772919E-5,0E0,1.5712636E-4,2.6678178E-4,5.705446E-4,8.7796163E-4,0E0,3.1985826E-4,5.491078E-6,0E0,0E0,0E0,4.0449544E-5,2.1331733E-5,4.916056E-5,6.830443E-5,0E0,0E0,0E0,0E0,0E0,0E0,0E0,0E0,0E0,0E0,0E0,0E0,0E0,0E0,0E0,0E0,0E0,0E0,0E0,0E0,0E0,0E0,0E0,0E0,0E0,0E0,0E0,0E0,0E0,0E0,0E0,0E0,0E0,0E0,0E0,0E0,0E0,0E0,0E0,0E0,0E0,0E0],"parents":[2147483647,0,0,1,1,2,2,3,3,4,4,5,5,6,6,7,7,8,8,9,9,10,10,11,11,12,12,13,13,14,14,17,17,18,18,19,19,20,20,21,21,22,22,23,23,24,24,25,25,26,26,27,27,28,28,29,29,30,30,31,31,33,33,34,34,35,35,36,36,37,37,39,39,40,40,41,41,42,42,43,43,45,45,46,46,47,47,48,48,50,50,51,51,55,55,56,56,57,57,58,58],"right_children":[2,4,6,8,10,12,14,16,18,20,22,24,26,28,30,-1,-1,32,34,36,38,40,42,44,46,48,50,52,54,56,58,60,-1,62,64,66,68,70,-1,72,74,76,78,80,-1,82,84,86,88,-1,90,92,-1,-1,-1,94,96,98,100,-1,-1,-1,-1,-1,-1,-1,-1,-1,-1,-1,-1,-1,-1,-1,-1,-1,-1,-1,-1,-1,-1,-1,-1,-1,-1,-1,-1,-1,-1,-1,-1,-1,-1,-1,-1,-1,-1,-1,-1,-1,-1],"split_conditions":[1.1631881E2,9.779398E1,1.1947653E2,-1.3590468E-1,1.0339725E2,1.1725418E2,1.2096391E2,4.8226707E1,9.8096756E1,2.49463E5,1.91664E5,3.859498E-1,1.738323E6,-2.3118844E-2,1.21868355E2,7.443508E-4,2.6440463E-4,-2.5998E5,9.775353E1,1.7657967E-2,1.02316086E2,1.0426496E2,4.5365435E-1,1.1702079E2,7.43676E5,1.1716933E2,1.17828354E2,1.2051175E2,1.199844E2,1.622429E6,2.330579E6,4.0017962E-1,-1.0886055E-5,6.462183E1,9.77048E1,1.0085475E2,1.00278496E2,4.617755E-1,-9.2231476E-4,-5.824954E-2,1.0650983E2,1.10013954E2,1.08165344E2,1.1634998E2,-1.1979595E-3,1.1635282E2,1.4043868E-1,1.1745246E2,4.0531483E-1,8.1548624E-4,2.095735E6,3.079288E1,-4.2511406E-4,2.3775554E-5,-6.762115E-5,5.2923787E-1,-4.2086873E-2,1.2091773E2,2.1263424E-1,4.5510427E-5,4.7525586E-4,2.552871E-4,3.01653E-5,1.2397293E-4,-8.658626E-6,-1.4476037E-4,1.0123155E-3,2.0743802E-4,-4.946079E-4,-2.0456291E-4,-8.375446E-4,1.1204634E-3,6.8746525E-4,8.163324E-5,9.376611E-4,3.211884E-4,-1.3210751E-4,-3.0185244E-4,1.5930271E-4,-4.490353E-4,3.1671202E-4,4.6048514E-4,-8.427878E-5,-4.254107E-4,-1.11832946E-4,-6.7238856E-5,2.1834006E-4,3.3476323E-4,-1.4658847E-4,4.1370913E-5,4.1142965E-4,-2.2795776E-4,-8.6235564E-4,3.2220592E-4,4.4680863E-5,-2.9156264E-4,-9.526431E-5,-9.909513E-5,-4.9423025E-4,-3.602107E-4,-4.5432273E-5],"split_indices":[0,2,8,5,7,7,7,4,7,9,9,6,9,5,7,0,0,9,0,5,3,3,6,7,9,2,2,7,1,9,9,6,0,4,1,8,8,6,0,5,8,7,0,0,0,2,5,7,6,0,9,4,0,0,0,6,5,2,5,0,0,0,0,0,0,0,0,0,0,0,0,0,0,0,0,0,0,0,0,0,0,0,0,0,0,0,0,0,0,0,0,0,0,0,0,0,0,0,0,0,0],"split_type":[0,0,0,0,0,0,0,0,0,0,0,0,0,0,0,0,0,0,0,0,0,0,0,0,0,0,0,0,0,0,0,0,0,0,0,0,0,0,0,0,0,0,0,0,0,0,0,0,0,0,0,0,0,0,0,0,0,0,0,0,0,0,0,0,0,0,0,0,0,0,0,0,0,0,0,0,0,0,0,0,0,0,0,0,0,0,0,0,0,0,0,0,0,0,0,0,0,0,0,0,0],"sum_hessian":[3.972E3,2.451E3,1.521E3,4.7E1,2.404E3,1.364E3,1.57E2,1.6E1,3.1E1,8.22E2,1.582E3,1.59E2,1.205E3,3.5E1,1.22E2,1.4E1,2E0,1.6E1,1.5E1,7.71E2,5.1E1,1.37E2,1.445E3,1.9E1,1.4E2,1.087E3,1.18E2,3.1E1,4E0,4.6E1,7.6E1,1.5E1,1E0,9E0,6E0,4.07E2,3.64E2,3.9E1,1.2E1,4.9E1,8.8E1,5.16E2,9.29E2,4E0,1.5E1,2E1,1.2E2,3.06E2,7.81E2,1.3E1,1.05E2,2.5E1,6E0,3E0,1E0,2.1E1,2.5E1,4.8E1,2.8E1,1E0,1.4E1,8E0,1E0,1E0,5E0,3.95E2,1.2E1,3.23E2,4.1E1,2.6E1,1.3E1,1.9E1,3E1,7.1E1,1.7E1,6.5E1,4.51E2,7.6E1,8.53E2,1E0,3E0,1.1E1,9E0,7.7E1,4.3E1,1.07E2,1.99E2,3.9E1,7.42E2,7.1E1,3.4E1,1E0,2.4E1,1.1E1,1E1,9E0,1.6E1,4E0,4.4E1,1.1E1,1.7E1],"tree_param":{"num_deleted":"0","num_feature":"11","num_nodes":"101","size_leaf_vector":"1"}},{"base_weights":[-2.977777E-8,4.987645E-4,-8.0360635E-4,4.1622063E-3,4.254406E-4,-5.441423E-4,-3.0400928E-3,6.58282E-4,3.0750404E-3,-5.209521E-4,7.438232E-4,-3.0946312E-3,-2.431484E-4,-6.301E-3,-2.0609647E-3,3.8804398E-3,2.0988053E-3,6.3508915E-6,-5.0659026E-3,1.3871969E-2,5.810559E-4,-3.9023967E-3,3.1694043E-3,-5.0503225E-4,2.1884725E-3,-7.075965E-3,-8.102124E-6,-3.434844E-5,-3.2712244E-3,4.974051E-4,2.732319E-3,2.9500583E-4,1.5444728E-3,-1.1943689E-3,1.5322391E-3,4.132845E-3,-6.289547E-3,5.0355843E-4,1.4503829E-3,2.9303313E-3,3.739185E-4,-8.379926E-3,-3.093529E-3,5.2333795E-3,7.5327297E-4,9.3491824E-4,-1.0991485E-3,7.397625E-4,1.4798254E-3,-7.6624453E-3,-3.886757E-4,1.7994785E-3,-1.5847271E-3,-4.188079E-3,-1.609256E-3,1.676972E-5,2.9720116E-4,1.7919856E-4,1.22101865E-5,-2.0145351E-5,-4.4047553E-4,3.017296E-4,-2.598812E-4,-2.7153583E-5,4.8008328E-4,-1.1443448E-3,-4.623859E-4,-1.8556844E-4,4.5428524E-4,-1.6687698E-4,6.9079746E-5,6.373349E-5,-1.0827018E-3,8.368992E-5,-3.7714414E-4,1.2353082E-4,5.578725E-4,-2.4989538E-4,1.4721706E-4,-7.359019E-5,1.9661522E-4,3.08188E-4,-1.316838E-4,3.7291273E-5,3.714622E-4,-5.2312395E-4,-8.452357E-4,6.0180686E-5,3.1765038E-4,-2.65322E-4,-8.6298256E-5,-4.7533627E-5,-4.4198806E-4,-2.3687671E-5,-3.0627428E-4],"categories":[],"categories_nodes":[],"categories_segments":[],"categories_sizes":[],"default_left":[0,0,0,0,0,0,0,0,0,0,0,0,0,0,0,0,0,0,0,0,0,0,0,0,0,0,0,0,0,0,0,0,0,0,0,0,0,0,0,0,0,0,0,0,0,0,0,0,0,0,0,0,0,0,0,0,0,0,0,0,0,0,0,0,0,0,0,0,0,0,0,0,0,0,0,0,0,0,0,0,0,0,0,0,0,0,0,0,0,0,0,0,0,0,0],"id":7,"left_children":[1,3,5,7,9,11,13,-1,15,17,19,21,23,25,27,29,31,33,35,37,39,41,43,45,47,49,-1,51,53,-1,55,-1,57,59,61,63,65,-1,-1,67,69,71,73,75,77,79,81,-1,83,85,-1,87,89,91,93,-1,-1,-1,-1,-1,-1,-1,-1,-1,-1,-1,-1,-1,-1,-1,-1,-1,-1,-1,-1,-1,-1,-1,-1,-1,-1,-1,-1,-1,-1,-1,-1,-1,-1,-1,-1,-1,-1,-1,-1],"loss_changes":[1.5928564E-3,6.5688003E-4,8.8154385E-4,1.0607479E-4,7.250499E-4,1.047133E-3,4.9148337E-4,0E0,1.937474E-5,1.4523511E-3,3.8382388E-3,7.409899E-4,7.792775E-4,1.7295626E-4,3.0157377E-4,9.01008E-6,3.937508E-6,9.985275E-4,7.351213E-4,4.9798284E-5,8.6460606E-4,4.376577E-4,8.083404E-5,9.4549754E-4,4.283355E-4,3.0071125E-5,0E0,1.3647861E-4,1.1059153E-4,0E0,6.2635227E-6,0E0,4.3579093E-6,9.713436E-4,1.4802043E-3,2.4840178E-5,4.278354E-4,0E0,0E0,1.1197572E-3,1.0601109E-3,4.2615575E-4,2.9624975E-4,5.5349956E-6,2.472105E-5,5.5797794E-4,7.15808E-4,0E0,2.6082963E-4,5.715061E-6,0E0,3.4371296E-5,1.7760969E-5,4.0069513E-5,5.712182E-5,0E0,0E0,0E0,0E0,0E0,0E0,0E0,0E0,0E0,0E0,0E0,0E0,0E0,0E0,0E0,0E0,0E0,0E0,0E0,0E0,0E0,0E0,0E0,0E0,0E0,0E0,0E0,0E0,0E0,0E0,0E0,0E0,0E0,0E0,0E0,0E0,0E0,0E0,0E0,0E0],"parents":[2147483647,0,0,1,1,2,2,3,3,4,4,5,5,6,6,8,8,9,9,10,10,11,11,12,12,13,13,14,14,15,15,16,16,17,17,18,18,19,19,20,20,21,21,22,22,23,23,24,24,25,25,27,27,28,28,30,30,32,32,33,33,34,34,35,35,36,36,39,39,40,40,41,41,42,42,43,43,44,44,45,45,46,46,48,48,49,49,51,51,52,52,53,53,54,54],"right_children":[2,4,6,8,10,12,14,-1,16,18,20,22,24,26,28,30,32,34,36,38,40,42,44,46,48,50,-1,52,54,-1,56,-1,58,60,62,64,66,-1,-1,68,70,72,74,76,78,80,82,-1,84,86,-1,88,90,92,94,-1,-1,-1,-1,-1,-1,-1,-1,-1,-1,-1,-1,-1,-1,-1,-1,-1,-1,-1,-1,-1,-1,-1,-1,-1,-1,-1,-1,-1,-1,-1,-1,-1,-1,-1,-1,-1,-1,-1,-1],"split_conditions":[1.1631881E2,9.775353E1,1.1947653E2,-2.0242585E-1,1.0032796E2,1.1714574E2,1.2096391E2,6.58282E-4,4.7944904E1,9.988049E1,-1.54346E5,5.7127243E-1,1.738323E6,-2.3118844E-2,1.21868355E2,4.180392E-1,9.761974E1,1.7657967E-2,-2.51657E5,9.94523E1,1.18804E5,3.859498E-1,1.1635282E2,1.1716933E2,1.17828354E2,1.2051175E2,-8.102124E-6,1.622429E6,2.330579E6,4.974051E-4,2.612E3,2.9500583E-4,5.8507412E1,5.0681717E1,1.9915652E-1,9.998901E1,-1.8955791E-1,5.0355843E-4,1.4503829E-3,1.01500626E2,1.05928276E2,1.1702079E2,1.1629358E2,1.1634998E2,4.2926113E1,1.1745246E2,4.0437344E-1,7.397625E-4,2.095735E6,4.2965716E-1,-3.886757E-4,1.2101615E2,-4.2086873E-2,1.9777325E1,1.215435E2,1.676972E-5,2.9720116E-4,1.7919856E-4,1.22101865E-5,-2.0145351E-5,-4.4047553E-4,3.017296E-4,-2.598812E-4,-2.7153583E-5,4.8008328E-4,-1.1443448E-3,-4.623859E-4,-1.8556844E-4,4.5428524E-4,-1.6687698E-4,6.9079746E-5,6.373349E-5,-1.0827018E-3,8.368992E-5,-3.7714414E-4,1.2353082E-4,5.578725E-4,-2.4989538E-4,1.4721706E-4,-7.359019E-5,1.9661522E-4,3.08188E-4,-1.316838E-4,3.7291273E-5,3.714622E-4,-5.2312395E-4,-8.452357E-4,6.0180686E-5,3.1765038E-4,-2.65322E-4,-8.6298256E-5,-4.7533627E-5,-4.4198806E-4,-2.3687671E-5,-3.0627428E-4],"split_indices":[0,0,8,5,0,7,7,0,4,1,9,6,9,5,7,6,1,5,9,8,9,6,2,2,2,7,0,9,9,0,10,0,4,4,5,0,5,0,0,7,7,7,1,0,4,7,6,0,9,6,0,0,5,4,2,0,0,0,0,0,0,0,0,0,0,0,0,0,0,0,0,0,0,0,0,0,0,0,0,0,0,0,0,0,0,0,0,0,0,0,0,0,0,0,0],"split_type":[0,0,0,0,0,0,0,0,0,0,0,0,0,0,0,0,0,0,0,0,0,0,0,0,0,0,0,0,0,0,0,0,0,0,0,0,0,0,0,0,0,0,0,0,0,0,0,0,0,0,0,0,0,0,0,0,0,0,0,0,0,0,0,0,0,0,0,0,0,0,0,0,0,0,0,0,0,0,0,0,0,0,0,0,0,0,0,0,0,0,0,0,0,0,0],"sum_hessian":[3.972E3,2.451E3,1.521E3,4.7E1,2.404E3,1.364E3,1.57E2,1.3E1,3.4E1,6.05E2,1.799E3,1.43E2,1.221E3,3.5E1,1.22E2,1.7E1,1.7E1,5.43E2,6.2E1,2.1E1,1.778E3,1.27E2,1.6E1,1.103E3,1.18E2,3.1E1,4E0,4.6E1,7.6E1,7E0,1E1,5E0,1.2E1,3.04E2,2.39E2,7E0,5.5E1,2E0,1.9E1,1.43E2,1.635E3,1.8E1,1.09E2,8E0,8E0,3.22E2,7.81E2,1.3E1,1.05E2,2.5E1,6E0,2.1E1,2.5E1,4.8E1,2.8E1,1E0,9E0,1E1,2E0,2.33E2,7.1E1,1.76E2,6.3E1,1E0,6E0,1.2E1,4.3E1,3.6E1,1.07E2,2.19E2,1.416E3,4E0,1.4E1,1.6E1,9.3E1,1E0,7E0,1E0,7E0,1.23E2,1.99E2,3.8E1,7.43E2,7.1E1,3.4E1,8E0,1.7E1,1.2E1,9E0,9E0,1.6E1,3E0,4.5E1,1.5E1,1.3E1],"tree_param":{"num_deleted":"0","num_feature":"11","num_nodes":"95","size_leaf_vector":"1"}},{"base_weights":[1.4041203E-7,2.5250943E-4,-1.3194571E-3,1.9119689E-4,4.6335333E-3,-2.151315E-3,2.5989165E-4,4.1738266E-4,-8.7118964E-4,2.2267099E-3,6.3992934E-3,-1.6609324E-3,-3.9454154E-3,-6.4287577E-3,8.1329234E-4,1.3139377E-4,1.8038991E-3,1.2494217E-3,-1.700008E-3,5.4538704E-4,3.7056042E-3,6.9081364E-3,3.551794E-4,-3.4447364E-3,-8.815328E-4,-7.179803E-3,-2.840975E-3,-8.565173E-4,-7.5616296E-3,4.4712573E-3,1.6066263E-4,3.8670644E-3,5.1707637E-5,2.3848345E-3,-1.3403555E-3,-3.2336412E-3,2.5915406E-3,-4.7745244E-3,-5.5158586E-4,-1.130411E-4,8.260079E-4,4.9871614E-4,1.8064468E-3,1.6887272E-4,7.0846705E-3,-3.8150458E-3,4.3541525E-4,-1.4794165E-3,1.4905953E-3,-3.362524E-4,-7.605557E-3,-1.7997359E-3,-4.9363053E-3,1.4010475E-5,-1.9231917E-4,-3.7410014E-4,-8.2635286E-4,7.1675642E-3,-1.907744E-3,-3.2181048E-3,6.9309527E-4,5.860454E-4,2.6491715E-4,-2.0082151E-4,1.7856924E-5,2.5986333E-4,-7.002229E-4,-6.465793E-5,-6.8964646E-4,1.1799585E-4,-4.0980647E-4,9.817978E-4,1.6005753E-4,-6.129892E-4,-2.0456254E-4,2.2080033E-4,-1.9559725E-4,1.2221067E-4,-7.3666874E-6,2.1703808E-4,-6.6113427E-7,7.242092E-4,2.0468327E-4,-2.7636185E-4,-6.39967E-4,4.0416555E-5,-2.6831517E-4,3.5071335E-4,-1.3303076E-5,-8.077698E-4,-3.815603E-4,-3.616678E-5,-2.1786282E-4,-5.2257674E-4,-1.3611226E-4,-7.1940165E-5,8.9601905E-4,1.13967304E-4,-3.3765903E-4,-3.8118832E-4,2.2089705E-4,1.3238376E-4,-1.3031E-4],"categories":[],"categories_nodes":[],"categories_segments":[],"categories_sizes":[],"default_left":[0,0,0,0,0,0,0,0,0,0,0,0,0,0,0,0,0,0,0,0,0,0,0,0,0,0,0,0,0,0,0,0,0,0,0,0,0,0,0,0,0,0,0,0,0,0,0,0,0,0,0,0,0,0,0,0,0,0,0,0,0,0,0,0,0,0,0,0,0,0,0,0,0,0,0,0,0,0,0,0,0,0,0,0,0,0,0,0,0,0,0,0,0,0,0,0,0,0,0,0,0,0,0],"id":8,"left_children":[1,3,5,7,9,11,13,15,17,19,21,23,25,27,29,31,33,35,37,39,41,43,-1,45,47,49,51,53,55,57,59,61,63,65,67,69,71,73,75,-1,77,-1,79,-1,81,83,-1,85,87,-1,89,91,93,-1,-1,-1,-1,95,97,99,101,-1,-1,-1,-1,-1,-1,-1,-1,-1,-1,-1,-1,-1,-1,-1,-1,-1,-1,-1,-1,-1,-1,-1,-1,-1,-1,-1,-1,-1,-1,-1,-1,-1,-1,-1,-1,-1,-1,-1,-1,-1,-1],"loss_changes":[1.3234436E-3,8.95203E-4,8.387596E-4,7.911801E-4,1.8124469E-4,3.6120147E-4,8.2326075E-4,1.0759408E-3,1.0180178E-3,5.0195486E-5,1.3135956E-5,4.5576104E-4,2.9752706E-4,1.0083808E-4,4.886774E-4,6.6988025E-4,8.5074303E-4,9.89119E-4,1.466197E-3,6.106632E-6,1.7763625E-5,7.385388E-6,0E0,3.0541152E-4,3.2982253E-4,1.0181102E-5,1.3947429E-4,4.5217334E-6,6.6297944E-6,5.4686604E-4,3.1704953E-4,9.8578166E-5,5.7658047E-4,8.049179E-4,2.7693372E-4,1.4981389E-4,8.865905E-4,4.0540914E-4,1.18248E-3,0E0,3.6536294E-6,0E0,3.9733477E-6,0E0,1.0378426E-6,2.4319813E-4,0E0,4.2054127E-4,1.5434947E-4,0E0,3.1770905E-6,2.4821085E-5,1.5654427E-5,0E0,0E0,0E0,0E0,3.174903E-4,4.8610083E-5,8.575985E-5,1.93106E-4,0E0,0E0,0E0,0E0,0E0,0E0,0E0,0E0,0E0,0E0,0E0,0E0,0E0,0E0,0E0,0E0,0E0,0E0,0E0,0E0,0E0,0E0,0E0,0E0,0E0,0E0,0E0,0E0,0E0,0E0,0E0,0E0,0E0,0E0,0E0,0E0,0E0,0E0,0E0,0E0,0E0,0E0],"parents":[2147483647,0,0,1,1,2,2,3,3,4,4,5,5,6,6,7,7,8,8,9,9,10,10,11,11,12,12,13,13,14,14,15,15,16,16,17,17,18,18,19,19,20,20,21,21,23,23,24,24,25,25,26,26,27,27,28,28,29,29,30,30,31,31,32,32,33,33,34,34,35,35,36,36,37,37,38,38,40,40,42,42,44,44,45,45,47,47,48,48,50,50,51,51,52,52,57,57,58,58,59,59,60,60],"right_children":[2,4,6,8,10,12,14,16,18,20,22,24,26,28,30,32,34,36,38,40,42,44,-1,46,48,50,52,54,56,58,60,62,64,66,68,70,72,74,76,-1,78,-1,80,-1,82,84,-1,86,88,-1,90,92,94,-1,-1,-1,-1,96,98,100,102,-1,-1,-1,-1,-1,-1,-1,-1,-1,-1,-1,-1,-1,-1,-1,-1,-1,-1,-1,-1,-1,-1,-1,-1,-1,-1,-1,-1,-1,-1,-1,-1,-1,-1,-1,-1,-1,-1,-1,-1,-1,-1],"split_conditions":[1.18834015E2,1.534986E6,1.4043868E-1,2.3188105E-1,1.1719227E2,1.1956693E2,1.046397E6,1.3587576E-1,2.40852E5,1.784055E6,6.3761135E1,1.185533E2,1.2051175E2,1.1834981E2,1.7890036E-1,9.779398E1,1.21394E6,9.825986E1,4.66894E5,-2.5914028E-1,1.17828354E2,3.1269201E1,3.551794E-4,1.0537166E-1,1.738323E6,-1.3888334E-1,2.095735E6,1.1832156E2,1.1852099E2,1.585016E6,4.3395156E-1,-1.3590468E-1,9.87997E1,7.609339E1,1.184334E2,9.846145E1,-1.54346E5,4.0642083E-1,1.14595055E2,-1.130411E-4,-9.532311E-2,4.9871614E-4,1.182454E2,1.6887272E-4,5.3217834E-1,-4.697515E-2,4.3541525E-4,1.1821713E2,1.823068E6,-3.362524E-4,5.315048E-1,1.544267E6,5.507203E1,1.4010475E-5,-1.9231917E-4,-3.7410014E-4,-8.2635286E-4,1.352455E6,4.5988483E1,1.933366E6,1.21157585E2,5.860454E-4,2.6491715E-4,-2.0082151E-4,1.7856924E-5,2.5986333E-4,-7.002229E-4,-6.465793E-5,-6.8964646E-4,1.1799585E-4,-4.0980647E-4,9.817978E-4,1.6005753E-4,-6.129892E-4,-2.0456254E-4,2.2080033E-4,-1.9559725E-4,1.2221067E-4,-7.3666874E-6,2.1703808E-4,-6.6113427E-7,7.242092E-4,2.0468327E-4,-2.7636185E-4,-6.39967E-4,4.0416555E-5,-2.6831517E-4,3.5071335E-4,-1.3303076E-5,-8.077698E-4,-3.815603E-4,-3.616678E-5,-2.1786282E-4,-5.2257674E-4,-1.3611226E-4,-7.1940165E-5,8.9601905E-4,1.13967304E-4,-3.3765903E-4,-3.8118832E-4,2.2089705E-4,1.3238376E-4,-1.3031E-4],"split_indices":[7,9,5,5,8,8,9,5,9,9,4,3,7,0,5,2,9,8,9,5,2,4,0,5,9,5,9,0,0,9,6,5,7,4,7,0,9,5,1,0,5,0,0,0,6,5,0,8,9,0,6,9,4,0,0,0,0,9,4,9,0,0,0,0,0,0,0,0,0,0,0,0,0,0,0,0,0,0,0,0,0,0,0,0,0,0,0,0,0,0,0,0,0,0,0,0,0,0,0,0,0,0,0],"split_type":[0,0,0,0,0,0,0,0,0,0,0,0,0,0,0,0,0,0,0,0,0,0,0,0,0,0,0,0,0,0,0,0,0,0,0,0,0,0,0,0,0,0,0,0,0,0,0,0,0,0,0,0,0,0,0,0,0,0,0,0,0,0,0,0,0,0,0,0,0,0,0,0,0,0,0,0,0,0,0,0,0,0,0,0,0,0,0,0,0,0,0,0,0,0,0,0,0,0,0,0,0,0,0],"sum_hessian":[3.972E3,3.335E3,6.37E2,3.29E3,4.5E1,4.17E2,2.2E2,2.713E3,5.77E2,2E1,2.5E1,3.29E2,8.8E1,1.6E1,2.04E2,2.25E3,4.63E2,1.62E2,4.15E2,1E1,1E1,2E1,5E0,9.9E1,2.3E2,2.1E1,6.7E1,3E0,1.3E1,3E1,1.74E2,4.6E1,2.204E3,3.91E2,7.2E1,3.7E1,1.25E2,1.12E2,3.03E2,1E0,9E0,5E0,5E0,1E0,1.9E1,9.5E1,4E0,1.84E2,4.6E1,3E0,1.8E1,4.6E1,2.1E1,2E0,1E0,3E0,1E1,2.1E1,9E0,2.3E1,1.51E2,1.6E1,3E1,1.27E2,2.077E3,3.83E2,8E0,6.5E1,7E0,6E0,3.1E1,1.4E1,1.11E2,7.4E1,3.8E1,1.02E2,2.01E2,6E0,3E0,4E0,1E0,1.8E1,1E0,6.9E1,2.6E1,7.2E1,1.12E2,2E1,2.6E1,1.5E1,3E0,1E1,3.6E1,1.9E1,2E0,4E0,1.7E1,3E0,6E0,2.1E1,2E0,1.15E2,3.6E1],"tree_param":{"num_deleted":"0","num_feature":"11","num_nodes":"103","size_leaf_vector":"1"}},{"base_weights":[-3.8845934E-7,4.2575374E-4,-6.8691955E-4,6.144314E-4,-6.652704E-4,-2.6763747E-3,-4.5287714E-4,3.5515355E-4,2.256188E-3,-4.107438E-3,-1.3863764E-4,-7.6120375E-3,-1.9169084E-3,1.0100813E-3,-8.492127E-4,2.0405826E-4,2.4776007E-3,1.0701437E-2,1.6805513E-3,-3.0339872E-3,-8.4219483E-4,6.448882E-3,-7.786096E-4,-3.2767456E-4,-9.867921E-4,-2.4095734E-3,3.0814002E-3,1.7074002E-3,-1.8825509E-3,-5.6394225E-4,-2.4976842E-3,-2.9928044E-3,3.257555E-4,-8.4629963E-4,4.7052884E-3,3.836619E-3,1.3814127E-3,-4.4174778E-4,3.3530383E-3,-3.347194E-3,1.9446264E-4,9.3992235E-4,4.798785E-3,-1.830642E-3,5.885324E-4,-4.4798735E-4,2.8683932E-4,3.2787287E-4,-2.9498932E-3,5.22514E-4,1.0884204E-4,1.1875014E-3,4.3714154E-3,-9.41097E-3,5.556403E-4,-9.286542E-4,1.8865126E-3,-5.293585E-3,-1.6590656E-3,-2.5975552E-5,-6.093868E-4,3.1104102E-4,2.1344944E-5,2.0696198E-4,-1.95676E-4,5.2501523E-4,-2.1632363E-4,1.3170534E-4,5.39703E-4,-6.370455E-4,1.6061482E-5,3.6358673E-4,-7.8791886E-4,-3.6727995E-4,3.386524E-5,2.3524068E-5,5.02659E-4,1.0612039E-5,-4.2799683E-4,4.5805378E-4,-8.191773E-5,-3.811983E-4,1.7697118E-4,-2.5683938E-4,-5.5108604E-4,1.772797E-4,-1.8822515E-5,7.091951E-4,2.288807E-4,-1.1183281E-3,-2.1843743E-4,-2.377043E-4,4.1937127E-4,3.8774833E-4,-1.0571892E-4,2.6816418E-4,-1.5488795E-4,-5.8997975E-4,-3.551102E-5,7.687246E-6,-2.697118E-4],"categories":[],"categories_nodes":[],"categories_segments":[],"categories_sizes":[],"default_left":[0,0,0,0,0,0,0,0,0,0,0,0,0,0,0,0,0,0,0,0,0,0,0,0,0,0,0,0,0,0,0,0,0,0,0,0,0,0,0,0,0,0,0,0,0,0,0,0,0,0,0,0,0,0,0,0,0,0,0,0,0,0,0,0,0,0,0,0,0,0,0,0,0,0,0,0,0,0,0,0,0,0,0,0,0,0,0,0,0,0,0,0,0,0,0,0,0,0,0,0,0],"id":9,"left_children":[1,3,5,7,9,11,13,15,17,19,21,23,25,27,29,31,33,35,37,39,-1,41,43,45,-1,47,49,51,53,55,57,59,61,63,65,67,-1,69,71,73,-1,-1,75,77,79,-1,-1,81,83,-1,-1,85,87,89,91,93,95,97,99,-1,-1,-1,-1,-1,-1,-1,-1,-1,-1,-1,-1,-1,-1,-1,-1,-1,-1,-1,-1,-1,-1,-1,-1,-1,-1,-1,-1,-1,-1,-1,-1,-1,-1,-1,-1,-1,-1,-1,-1,-1,-1],"loss_changes":[1.1626327E-3,5.0515763E-4,7.074568E-4,8.8927714E-4,6.5564906E-4,5.851636E-4,7.911557E-4,5.789844E-4,1.3675134E-3,1.967558E-4,1.3330069E-3,3.4185278E-4,3.5217358E-4,5.901867E-4,5.031806E-4,6.576902E-4,8.9253555E-4,3.3162558E-4,9.527518E-4,6.888239E-5,0E0,9.120896E-5,4.1530133E-4,9.24743E-5,0E0,1.9029161E-4,4.985444E-5,3.2028818E-4,1.0515056E-3,8.203906E-4,3.6167935E-4,5.2388926E-4,5.081537E-4,1.6271236E-4,2.8081064E-4,2.0412728E-5,0E0,4.2599972E-4,5.0516764E-4,4.6848814E-5,0E0,0E0,1.960952E-5,7.736876E-4,7.118199E-4,0E0,0E0,1.3806422E-4,9.0385845E-5,0E0,0E0,1.597646E-4,1.9906869E-4,1.5488022E-4,4.7941844E-4,4.970691E-4,3.292116E-4,1.05680316E-4,2.2185265E-4,0E0,0E0,0E0,0E0,0E0,0E0,0E0,0E0,0E0,0E0,0E0,0E0,0E0,0E0,0E0,0E0,0E0,0E0,0E0,0E0,0E0,0E0,0E0,0E0,0E0,0E0,0E0,0E0,0E0,0E0,0E0,0E0,0E0,0E0,0E0,0E0,0E0,0E0,0E0,0E0,0E0,0E0],"parents":[2147483647,0,0,1,1,2,2,3,3,4,4,5,5,6,6,7,7,8,8,9,9,10,10,11,11,12,12,13,13,14,14,15,15,16,16,17,17,18,18,19,19,21,21,22,22,23,23,25,25,26,26,27,27,28,28,29,29,30,30,31,31,32,32,33,33,34,34,35,35,37,37,38,38,39,39,42,42,43,43,44,44,47,47,48,48,51,51,52,52,53,53,54,54,55,55,56,56,57,57,58,58],"right_children":[2,4,6,8,10,12,14,16,18,20,22,24,26,28,30,32,34,36,38,40,-1,42,44,46,-1,48,50,52,54,56,58,60,62,64,66,68,-1,70,72,74,-1,-1,76,78,80,-1,-1,82,84,-1,-1,86,88,90,92,94,96,98,100,-1,-1,-1,-1,-1,-1,-1,-1,-1,-1,-1,-1,-1,-1,-1,-1,-1,-1,-1,-1,-1,-1,-1,-1,-1,-1,-1,-1,-1,-1,-1,-1,-1,-1,-1,-1,-1,-1,-1,-1,-1,-1],"split_conditions":[1.1631881E2,2.6655546E-1,1.1725418E2,1.6175424E-1,9.99368E1,3.87504E-1,1.1714328E2,1.11697E6,-2.92655E5,2.60297E5,1.18804E5,1.1702079E2,6.1246365E-1,1.352455E6,1.1947653E2,-4.1631025E-1,1.1629213E2,9.94523E1,1.0896609E2,6.269426E-1,-8.4219483E-4,1.0128481E2,1.0896609E2,1.1634998E2,-9.867921E-4,1.1549636E2,1.1637279E2,1.1648719E2,4.2216513E-1,1.738323E6,1.2096391E2,1.1426992E2,9.786941E1,1.15647026E2,1.16488686E2,9.720564E1,1.3814127E-3,3.6890173E-1,7.609339E1,4.5495E4,1.9446264E-4,9.3992235E-4,6.443846E1,2.7202E5,1.1308745E2,-4.4798735E-4,2.8683932E-4,4.6781382E-1,1.16804985E2,5.22514E-4,1.0884204E-4,5.354623E-1,5.4399933E1,2.146421E-1,1.1633222E2,3.87504E-1,1.19991844E2,-2.3118844E-2,1.21868355E2,-2.5975552E-5,-6.093868E-4,3.1104102E-4,2.1344944E-5,2.0696198E-4,-1.95676E-4,5.2501523E-4,-2.1632363E-4,1.3170534E-4,5.39703E-4,-6.370455E-4,1.6061482E-5,3.6358673E-4,-7.8791886E-4,-3.6727995E-4,3.386524E-5,2.3524068E-5,5.02659E-4,1.0612039E-5,-4.2799683E-4,4.5805378E-4,-8.191773E-5,-3.811983E-4,1.7697118E-4,-2.5683938E-4,-5.5108604E-4,1.772797E-4,-1.8822515E-5,7.091951E-4,2.288807E-4,-1.1183281E-3,-2.1843743E-4,-2.377043E-4,4.1937127E-4,3.8774833E-4,-1.0571892E-4,2.6816418E-4,-1.5488795E-4,-5.8997975E-4,-3.551102E-5,7.687246E-6,-2.697118E-4],"split_indices":[0,5,7,5,2,6,2,9,9,9,9,7,6,9,8,5,7,8,8,6,0,2,8,0,0,8,3,8,6,9,7,0,1,0,3,8,0,6,4,10,0,0,4,9,7,0,0,6,2,0,0,6,4,5,8,6,2,5,7,0,0,0,0,0,0,0,0,0,0,0,0,0,0,0,0,0,0,0,0,0,0,0,0,0,0,0,0,0,0,0,0,0,0,0,0,0,0,0,0,0,0],"split_type":[0,0,0,0,0,0,0,0,0,0,0,0,0,0,0,0,0,0,0,0,0,0,0,0,0,0,0,0,0,0,0,0,0,0,0,0,0,0,0,0,0,0,0,0,0,0,0,0,0,0,0,0,0,0,0,0,0,0,0,0,0,0,0,0,0,0,0,0,0,0,0,0,0,0,0,0,0,0,0,0,0,0,0,0,0,0,0,0,0,0,0,0,0,0,0,0,0,0,0,0,0],"sum_hessian":[3.972E3,2.451E3,1.521E3,2.09E3,3.61E2,1.59E2,1.362E3,1.806E3,2.84E2,4.7E1,3.14E2,2E1,1.39E2,2.9E2,1.072E3,1.687E3,1.19E2,1.7E1,2.67E2,3.9E1,8E0,2.7E1,2.87E2,5E0,1.5E1,1.27E2,1.2E1,2.34E2,5.6E1,9.15E2,1.57E2,6.1E1,1.626E3,4.8E1,7.1E1,6E0,1.1E1,1.18E2,1.49E2,3.7E1,2E0,8E0,1.9E1,1.62E2,1.25E2,2E0,3E0,2.1E1,1.06E2,5E0,7E0,1.97E2,3.7E1,1.3E1,4.3E1,7.97E2,1.18E2,3.5E1,1.22E2,3.3E1,2.8E1,6.2E1,1.564E3,1.3E1,3.5E1,6.6E1,5E0,3E0,3E0,1E1,1.08E2,1.46E2,3E0,3.4E1,3E0,1E0,1.8E1,9.1E1,7.1E1,3.2E1,9.3E1,5E0,1.6E1,9.4E1,1.2E1,1.38E2,5.9E1,1.5E1,2.2E1,1E1,3E0,2.4E1,1.9E1,2E1,7.77E2,9.6E1,2.2E1,3.1E1,4E0,4.6E1,7.6E1],"tree_param":{"num_deleted":"0","num_feature":"11","num_nodes":"101","size_leaf_vector":"1"}},{"base_weights":[-5.0348405E-7,5.1448017E-4,-4.833475E-4,1.1959129E-4,1.9230397E-3,-3.2709262E-4,-2.1776804E-3,3.0949884E-4,-5.405312E-3,-3.810337E-4,2.842873E-3,-4.6868972E-4,1.932478E-3,-4.6855183E-3,-1.4609487E-3,1.404415E-4,4.1678012E-3,-6.147029E-3,1.0584493E-4,-1.5576665E-3,2.6755757E-3,4.663531E-3,1.843727E-3,-2.3826729E-3,-3.0655836E-4,5.589292E-3,1.3028791E-3,-5.695132E-3,-1.875756E-4,-1.6679348E-4,-2.392595E-3,3.7270944E-4,-6.830718E-3,4.1574592E-4,5.3822594E-3,-6.669539E-4,-3.3159278E-4,1.7010457E-4,-3.943786E-3,-4.2677787E-3,4.3158582E-3,5.6753717E-3,-5.9854396E-4,-1.7904666E-4,3.709607E-3,-3.0528454E-3,2.2547464E-3,-5.4425534E-5,-1.7067402E-3,6.690542E-4,3.2176066E-4,-1.1906228E-3,2.197642E-3,-3.4949518E-4,-6.576411E-4,1.8329783E-4,-7.380802E-4,1.6794025E-3,-1.7193091E-3,-3.2186862E-3,-1.0096572E-3,5.208271E-5,-3.837425E-4,-1.0284645E-3,-4.3663822E-4,2.6668908E-4,-1.6314657E-4,-4.9126527E-5,6.1105256E-4,1.8097456E-4,-1.9759533E-4,-6.0504087E-4,3.2824188E-4,-4.605774E-4,-1.11990455E-4,7.226227E-4,4.018773E-5,2.0021356E-4,7.1595307E-4,3.6649657E-5,-2.167393E-4,3.0162116E-4,-1.12656875E-4,-2.981741E-5,5.0147076E-4,-1.6502297E-4,-5.4699177E-4,3.2438905E-4,-2.0182307E-4,-3.7513175E-5,1.5072095E-4,-3.9398303E-4,-4.399599E-5,7.610249E-5,-4.3893614E-4,3.3879935E-4,-4.3387357E-5,-3.9010097E-6,-1.6571704E-4,4.6227235E-4,1.259028E-4,-9.4107985E-5,-2.6526695E-4,-1.15270435E-4,-3.59369E-4,-2.5803864E-4,-1.388154E-5],"categories":[],"categories_nodes":[],"categories_segments":[],"categories_sizes":[],"default_left":[0,0,0,0,0,0,0,0,0,0,0,0,0,0,0,0,0,0,0,0,0,0,0,0,0,0,0,0,0,0,0,0,0,0,0,0,0,0,0,0,0,0,0,0,0,0,0,0,0,0,0,0,0,0,0,0,0,0,0,0,0,0,0,0,0,0,0,0,0,0,0,0,0,0,0,0,0,0,0,0,0,0,0,0,0,0,0,0,0,0,0,0,0,0,0,0,0,0,0,0,0,0,0,0,0,0,0],"id":10,"left_children":[1,3,5,7,9,11,13,15,17,19,21,23,25,27,29,31,33,35,-1,37,39,41,43,45,47,49,51,53,55,57,59,61,63,65,67,-1,-1,69,71,73,75,77,79,81,83,85,87,89,91,-1,-1,93,95,-1,-1,-1,97,99,101,103,105,-1,-1,-1,-1,-1,-1,-1,-1,-1,-1,-1,-1,-1,-1,-1,-1,-1,-1,-1,-1,-1,-1,-1,-1,-1,-1,-1,-1,-1,-1,-1,-1,-1,-1,-1,-1,-1,-1,-1,-1,-1,-1,-1,-1,-1,-1],"loss_changes":[9.881621E-4,1.0693896E-3,5.422855E-4,1.578652E-3,8.933352E-4,6.0208916E-4,3.0411303E-4,9.4782154E-4,2.4622038E-4,4.3934496E-4,5.3895195E-4,5.4821966E-4,2.4827602E-4,1.7149665E-4,1.6357546E-4,2.2596784E-3,2.75722E-4,4.445191E-5,0E0,3.6346575E-4,4.056472E-4,5.677813E-4,7.404177E-4,4.3576962E-4,5.76055E-4,2.0261621E-5,2.1680152E-4,3.712403E-5,1.025148E-5,1.6912981E-4,8.700241E-5,8.43852E-4,3.381169E-4,7.808806E-5,1.9976625E-4,0E0,0E0,1.8655173E-4,5.831068E-4,2.2897293E-6,3.1604746E-4,4.708639E-4,2.8046392E-5,2.9101787E-4,5.350119E-4,4.0119037E-4,8.262554E-5,6.937086E-4,7.0264656E-4,0E0,0E0,1.656535E-4,2.2387237E-4,0E0,0E0,0E0,4.4329126E-6,2.7586888E-5,2.0747422E-5,3.382034E-5,4.2045358E-5,0E0,0E0,0E0,0E0,0E0,0E0,0E0,0E0,0E0,0E0,0E0,0E0,0E0,0E0,0E0,0E0,0E0,0E0,0E0,0E0,0E0,0E0,0E0,0E0,0E0,0E0,0E0,0E0,0E0,0E0,0E0,0E0,0E0,0E0,0E0,0E0,0E0,0E0,0E0,0E0,0E0,0E0,0E0,0E0,0E0,0E0],"parents":[2147483647,0,0,1,1,2,2,3,3,4,4,5,5,6,6,7,7,8,8,9,9,10,10,11,11,12,12,13,13,14,14,15,15,16,16,17,17,19,19,20,20,21,21,22,22,23,23,24,24,25,25,26,26,27,27,28,28,29,29,30,30,31,31,32,32,33,33,34,34,37,37,38,38,39,39,40,40,41,41,42,42,43,43,44,44,45,45,46,46,47,47,48,48,51,51,52,52,56,56,57,57,58,58,59,59,60,60],"right_children":[2,4,6,8,10,12,14,16,18,20,22,24,26,28,30,32,34,36,-1,38,40,42,44,46,48,50,52,54,56,58,60,62,64,66,68,-1,-1,70,72,74,76,78,80,82,84,86,88,90,92,-1,-1,94,96,-1,-1,-1,98,100,102,104,106,-1,-1,-1,-1,-1,-1,-1,-1,-1,-1,-1,-1,-1,-1,-1,-1,-1,-1,-1,-1,-1,-1,-1,-1,-1,-1,-1,-1,-1,-1,-1,-1,-1,-1,-1,-1,-1,-1,-1,-1,-1,-1,-1,-1,-1,-1],"split_conditions":[1.1540123E2,5.9397E5,1.1933509E2,1.13076256E2,4.5515555E-1,1.738323E6,1.2065841E2,1.10256714E2,1.1485098E2,8.85236E5,1.14088196E2,-3.2603544E-1,1.1856677E2,-2.3118844E-2,1.21868355E2,1.1008761E2,-2.4112871E-1,1.1505305E2,1.0584493E-4,1.1420955E2,1.1475567E2,3.4276617E-1,1.1420762E2,1.49043E6,2.2758213E-1,1.1779158E2,1.1906047E2,1.534986E6,1.1989699E2,1.622429E6,2.330579E6,1.1065899E2,8.481127E-2,1.1222895E2,1.1082154E2,-6.669539E-4,-3.3159278E-4,7.7441E5,7.7441E5,6.901142E1,9.53911E5,-2.1703549E-1,7.247904E1,1.1420955E2,7.61131E5,1.1856677E2,3.467371E1,1.3816343E-1,4.7308964E-1,6.690542E-4,3.2176066E-4,1.1767999E2,1.2065841E2,-3.4949518E-4,-6.576411E-4,1.8329783E-4,1.199844E2,1.480954E6,1.803053E6,1.20763916E2,1.9915652E-1,5.208271E-5,-3.837425E-4,-1.0284645E-3,-4.3663822E-4,2.6668908E-4,-1.6314657E-4,-4.9126527E-5,6.1105256E-4,1.8097456E-4,-1.9759533E-4,-6.0504087E-4,3.2824188E-4,-4.605774E-4,-1.11990455E-4,7.226227E-4,4.018773E-5,2.0021356E-4,7.1595307E-4,3.6649657E-5,-2.167393E-4,3.0162116E-4,-1.12656875E-4,-2.981741E-5,5.0147076E-4,-1.6502297E-4,-5.4699177E-4,3.2438905E-4,-2.0182307E-4,-3.7513175E-5,1.5072095E-4,-3.9398303E-4,-4.399599E-5,7.610249E-5,-4.3893614E-4,3.3879935E-4,-4.3387357E-5,-3.9010097E-6,-1.6571704E-4,4.6227235E-4,1.259028E-4,-9.4107985E-5,-2.6526695E-4,-1.15270435E-4,-3.59369E-4,-2.5803864E-4,-1.388154E-5],"split_indices":[3,9,8,8,6,9,7,3,3,9,0,5,7,5,7,0,5,7,0,2,1,5,8,9,5,2,0,9,2,9,9,7,5,8,7,0,0,9,9,4,9,5,4,2,9,7,4,5,6,0,0,8,7,0,0,0,1,9,9,0,5,0,0,0,0,0,0,0,0,0,0,0,0,0,0,0,0,0,0,0,0,0,0,0,0,0,0,0,0,0,0,0,0,0,0,0,0,0,0,0,0,0,0,0,0,0,0],"split_type":[0,0,0,0,0,0,0,0,0,0,0,0,0,0,0,0,0,0,0,0,0,0,0,0,0,0,0,0,0,0,0,0,0,0,0,0,0,0,0,0,0,0,0,0,0,0,0,0,0,0,0,0,0,0,0,0,0,0,0,0,0,0,0,0,0,0,0,0,0,0,0,0,0,0,0,0,0,0,0,0,0,0,0,0,0,0,0,0,0,0,0,0,0,0,0,0,0,0,0,0,0,0,0,0,0,0,0],"sum_hessian":[3.972E3,1.922E3,2.05E3,1.502E3,4.2E2,1.878E3,1.72E2,1.453E3,4.9E1,1.2E2,3E2,1.768E3,1.1E2,3.7E1,1.35E2,1.393E3,6E1,4.4E1,5E0,8.7E1,3.3E1,1.05E2,1.95E2,1.37E2,1.631E3,1.5E1,9.5E1,3E1,7E0,5.7E1,7.8E1,1.349E3,4.4E1,1.5E1,4.5E1,3.6E1,8E0,5.1E1,3.6E1,6E0,2.7E1,8.8E1,1.7E1,9.4E1,1.01E2,1.2E2,1.7E1,1.383E3,2.48E2,9E0,6E0,2.5E1,7E1,1E1,2E1,1E0,6E0,2.6E1,3.1E1,4.8E1,3E1,1.304E3,4.5E1,1.7E1,2.7E1,7E0,8E0,5E0,4E1,2.9E1,2.2E1,2.8E1,8E0,5E0,1E0,1.5E1,1.2E1,2.6E1,6.2E1,1.1E1,6E0,2.1E1,7.3E1,2.5E1,7.6E1,7.7E1,4.3E1,1.4E1,3E0,1.148E3,2.35E2,8.9E1,1.59E2,1.6E1,9E0,4.8E1,2.2E1,4E0,2E0,2E0,2.4E1,1.8E1,1.3E1,8E0,4E1,1E1,2E1],"tree_param":{"num_deleted":"0","num_feature":"11","num_nodes":"107","size_leaf_vector":"1"}},{"base_weights":[-1.0150733E-6,3.5584543E-4,-5.759303E-4,2.932715E-4,3.0278782E-3,-2.5087323E-3,-3.7368268E-4,-5.9255556E-4,4.944045E-4,8.566766E-4,1.7849685E-3,-3.1705513E-3,2.6219469E-3,8.1631355E-4,-7.1380864E-4,4.7719115E-3,-9.376466E-4,-1.19451E-3,7.193065E-4,2.8062976E-4,3.4816887E-3,-2.066577E-3,-5.462726E-3,4.5310324E-3,4.2153412E-4,-7.2024757E-4,1.8473857E-3,-4.7207612E-4,-1.9686478E-3,5.297675E-3,1.3990181E-3,-3.5068404E-3,-3.4722206E-4,1.9456361E-3,-2.0116274E-3,5.0069853E-3,4.7190386E-4,2.411166E-4,-1.0209956E-4,4.6297903E-3,-1.347815E-3,1.927971E-4,-2.6102692E-3,-9.244215E-4,-3.579206E-3,5.3711643E-4,2.1380761E-4,-2.2357584E-4,1.0331655E-3,-5.882565E-3,8.46705E-4,2.7457539E-3,-2.5505899E-4,-1.2571455E-3,4.3403514E-4,-4.2431103E-3,-1.3186609E-3,6.1772537E-4,3.7765657E-4,1.7763492E-4,-5.5153296E-6,-1.480368E-6,-7.796634E-4,1.6515482E-4,-1.0489744E-4,7.818638E-5,2.8218346E-4,1.5200987E-4,-2.659424E-4,3.230937E-4,1.1027014E-3,5.446647E-4,3.3707E-5,-3.255112E-5,1.4958152E-4,9.276584E-5,4.7929943E-4,4.059722E-5,-2.6523307E-4,2.658376E-4,-2.5681566E-4,-9.5489835E-5,-3.7305278E-4,-5.692382E-4,-1.5064773E-4,-3.8600396E-5,1.2910475E-4,-2.861137E-4,-9.3811576E-4,-3.6080327E-4,1.782753E-4,-5.095749E-5,4.379344E-4,8.665264E-5,-2.6709907E-4,-4.375692E-4,-9.267568E-5,1.2598309E-4,-1.0865763E-4,-5.1581074E-4,-1.6710808E-5,-2.321106E-4,-3.1163294E-5],"categories":[],"categories_nodes":[],"categories_segments":[],"categories_sizes":[],"default_left":[0,0,0,0,0,0,0,0,0,0,0,0,0,0,0,0,0,0,0,0,0,0,0,0,0,0,0,0,0,0,0,0,0,0,0,0,0,0,0,0,0,0,0,0,0,0,0,0,0,0,0,0,0,0,0,0,0,0,0,0,0,0,0,0,0,0,0,0,0,0,0,0,0,0,0,0,0,0,0,0,0,0,0,0,0,0,0,0,0,0,0,0,0,0,0,0,0,0,0,0,0,0,0],"id":11,"left_children":[1,3,5,7,9,11,13,15,17,-1,19,21,23,25,27,29,31,33,35,37,39,41,43,45,47,49,51,53,55,57,59,61,63,65,67,69,71,-1,73,75,77,79,81,-1,83,-1,-1,-1,85,87,89,91,93,95,97,99,101,-1,-1,-1,-1,-1,-1,-1,-1,-1,-1,-1,-1,-1,-1,-1,-1,-1,-1,-1,-1,-1,-1,-1,-1,-1,-1,-1,-1,-1,-1,-1,-1,-1,-1,-1,-1,-1,-1,-1,-1,-1,-1,-1,-1,-1,-1],"loss_changes":[8.1532355E-4,4.0908533E-4,5.9401925E-4,4.2736426E-4,3.7023152E-4,4.972766E-4,5.58731E-4,8.264202E-4,7.43067E-4,0E0,1.1898769E-4,3.1261507E-4,6.9503214E-5,4.8771227E-4,3.2454956E-4,4.046876E-5,6.328529E-4,5.9406366E-4,1.8274881E-3,2.1447064E-5,1.2822484E-4,1.08602806E-4,2.5893596E-4,6.6096254E-6,1.693746E-5,1.00803E-3,3.4823397E-4,6.4148125E-4,2.501629E-4,7.443712E-6,2.8414916E-6,1.1683337E-3,4.800332E-4,4.673908E-5,4.2271713E-4,9.6940785E-4,1.0928507E-3,0E0,8.697739E-6,6.4294145E-6,1.2515984E-5,1.293594E-4,1.2810327E-4,0E0,1.1844575E-4,0E0,0E0,0E0,3.4261739E-6,2.7971086E-4,4.067376E-4,6.8823714E-4,1.5405621E-4,4.9359555E-4,5.275133E-4,1.4086021E-4,1.3656738E-4,0E0,0E0,0E0,0E0,0E0,0E0,0E0,0E0,0E0,0E0,0E0,0E0,0E0,0E0,0E0,0E0,0E0,0E0,0E0,0E0,0E0,0E0,0E0,0E0,0E0,0E0,0E0,0E0,0E0,0E0,0E0,0E0,0E0,0E0,0E0,0E0,0E0,0E0,0E0,0E0,0E0,0E0,0E0,0E0,0E0,0E0],"parents":[2147483647,0,0,1,1,2,2,3,3,4,4,5,5,6,6,7,7,8,8,10,10,11,11,12,12,13,13,14,14,15,15,16,16,17,17,18,18,19,19,20,20,21,21,22,22,23,23,24,24,25,25,26,26,27,27,28,28,29,29,30,30,31,31,32,32,33,33,34,34,35,35,36,36,38,38,39,39,40,40,41,41,42,42,44,44,48,48,49,49,50,50,51,51,52,52,53,53,54,54,55,55,56,56],"right_children":[2,4,6,8,10,12,14,16,18,-1,20,22,24,26,28,30,32,34,36,38,40,42,44,46,48,50,52,54,56,58,60,62,64,66,68,70,72,-1,74,76,78,80,82,-1,84,-1,-1,-1,86,88,90,92,94,96,98,100,102,-1,-1,-1,-1,-1,-1,-1,-1,-1,-1,-1,-1,-1,-1,-1,-1,-1,-1,-1,-1,-1,-1,-1,-1,-1,-1,-1,-1,-1,-1,-1,-1,-1,-1,-1,-1,-1,-1,-1,-1,-1,-1,-1,-1,-1,-1],"split_conditions":[1.1631881E2,1.277283E6,1.1714574E2,-1.7258193E-1,4.458818E1,5.7127243E-1,1.1714328E2,9.8076546E1,9.804053E1,8.566766E-4,1.1627882E2,1.1705624E2,1.1635282E2,1.1745246E2,1.1933509E2,4.8226707E1,-8.9181E4,9.786941E1,-1.64064E5,1.1583056E2,1.1617342E2,-1.5033351E-2,3.859498E-1,5.2660526E1,4.2926113E1,-4.7510783E-3,1.6175424E-1,1.397311E6,1.2065841E2,2.4916E4,-1.8955791E-1,9.831063E1,1.0892383E2,-3.27031E5,4.153443E1,1.0032796E2,9.874978E1,2.411166E-4,4.3577E4,3.12E3,1.1627526E2,4.9584737E-1,1.1559698E2,-9.244215E-4,3.224E4,5.3711643E-4,2.1380761E-4,-2.2357584E-4,1.1623041E2,1.286326E6,1.1561345E2,-2.2477764E-1,1.21394E6,-3.1161422E-1,5.1769876E-1,-2.3118844E-2,4.829691E-1,6.1772537E-4,3.7765657E-4,1.7763492E-4,-5.5153296E-6,-1.480368E-6,-7.796634E-4,1.6515482E-4,-1.0489744E-4,7.818638E-5,2.8218346E-4,1.5200987E-4,-2.659424E-4,3.230937E-4,1.1027014E-3,5.446647E-4,3.3707E-5,-3.255112E-5,1.4958152E-4,9.276584E-5,4.7929943E-4,4.059722E-5,-2.6523307E-4,2.658376E-4,-2.5681566E-4,-9.5489835E-5,-3.7305278E-4,-5.692382E-4,-1.5064773E-4,-3.8600396E-5,1.2910475E-4,-2.861137E-4,-9.3811576E-4,-3.6080327E-4,1.782753E-4,-5.095749E-5,4.379344E-4,8.665264E-5,-2.6709907E-4,-4.375692E-4,-9.267568E-5,1.2598309E-4,-1.0865763E-4,-5.1581074E-4,-1.6710808E-5,-2.321106E-4,-3.1163294E-5],"split_indices":[0,9,7,5,4,6,2,3,8,0,7,7,2,7,8,4,9,1,9,7,0,5,6,4,4,5,5,9,7,10,5,8,3,9,4,0,2,0,10,10,0,6,8,0,10,0,0,0,3,9,8,5,9,5,6,5,6,0,0,0,0,0,0,0,0,0,0,0,0,0,0,0,0,0,0,0,0,0,0,0,0,0,0,0,0,0,0,0,0,0,0,0,0,0,0,0,0,0,0,0,0,0,0],"split_type":[0,0,0,0,0,0,0,0,0,0,0,0,0,0,0,0,0,0,0,0,0,0,0,0,0,0,0,0,0,0,0,0,0,0,0,0,0,0,0,0,0,0,0,0,0,0,0,0,0,0,0,0,0,0,0,0,0,0,0,0,0,0,0,0,0,0,0,0,0,0,0,0,0,0,0,0,0,0,0,0,0,0,0,0,0,0,0,0,0,0,0,0,0,0,0,0,0,0,0,0,0,0,0],"sum_hessian":[3.972E3,2.451E3,1.521E3,2.396E3,5.5E1,1.43E2,1.378E3,4.43E2,1.953E3,9E0,4.6E1,1.27E2,1.6E1,3.06E2,1.072E3,2.6E1,4.17E2,2.29E2,1.724E3,2.5E1,2.1E1,8.7E1,4E1,8E0,8E0,1.23E2,1.83E2,9E2,1.72E2,2.2E1,4E0,7.7E1,3.4E2,4.7E1,1.82E2,9.3E1,1.631E3,3E0,2.2E1,1.7E1,4E0,1.7E1,7E1,1.2E1,2.8E1,5E0,3E0,1E0,7E0,2.8E1,9.5E1,1.28E2,5.5E1,4.82E2,4.18E2,3.7E1,1.35E2,1.2E1,1E1,3E0,1E0,4.3E1,3.4E1,8.8E1,2.52E2,2.1E1,2.6E1,2.8E1,1.54E2,7.3E1,2E1,4.2E1,1.589E3,2E1,2E0,1E0,1.6E1,2E0,2E0,9E0,8E0,2.9E1,4.1E1,1.3E1,1.5E1,1E0,6E0,1.6E1,1.2E1,1.6E1,7.9E1,4.3E1,8.5E1,3.8E1,1.7E1,4.5E1,4.37E2,2.71E2,1.47E2,3E1,7E0,6.7E1,6.8E1],"tree_param":{"num_deleted":"0","num_feature":"11","num_nodes":"103","size_leaf_vector":"1"}},{"base_weights":[-8.469654E-7,4.2776202E-4,-4.0270668E-4,6.374436E-5,1.726315E-3,4.132813E-3,-4.5392118E-4,2.3321615E-4,-4.86577E-3,-2.3785811E-5,2.715308E-3,4.528722E-3,1.1200665E-4,-3.1796895E-4,-1.6686018E-3,7.7998746E-5,3.7764923E-3,-5.532032E-3,9.42156E-4,4.56263E-3,-3.7642068E-4,3.7286885E-3,1.1700954E-3,5.1881773E-3,2.1252956E-4,-4.4764104E-4,2.555256E-3,-4.1798986E-3,-1.0496898E-3,3.2274402E-4,-5.3688837E-3,4.7898406E-4,4.8413537E-3,-5.985978E-3,-3.0511405E-4,1.2458078E-4,2.2323504E-5,-6.1807205E-4,7.611327E-4,1.8245581E-3,-1.3410872E-3,1.7392256E-4,5.1799933E-3,4.968536E-3,2.5035272E-4,5.772196E-4,2.865701E-4,-2.2693207E-3,-3.0473043E-4,7.994224E-4,4.247208E-3,-6.480181E-4,-5.1843794E-3,-2.092403E-3,-9.079306E-5,1.6346047E-4,-1.7444441E-5,-2.935812E-4,-8.044687E-4,2.525323E-4,-1.3932044E-4,-4.7841564E-5,5.5017753E-4,-4.6376334E-4,-6.7924487E-4,3.5960547E-5,-9.523928E-5,3.1550086E-4,-2.4536118E-4,-3.14804E-4,6.820294E-5,-3.720754E-5,6.272919E-4,9.722965E-4,4.2367307E-4,6.513965E-4,-6.4753596E-4,-5.8830377E-5,3.5444784E-4,-1.02777E-5,-3.5408806E-4,-1.0214618E-5,-1.8494311E-4,1.5862536E-4,-1.4191559E-4,4.974345E-4,1.5683632E-4,5.6446104E-5,-1.9733894E-4,-3.2240068E-4,-6.2528247E-4,3.7404836E-5,-2.4968883E-4,-1.0025582E-4,1.1112872E-4],"categories":[],"categories_nodes":[],"categories_segments":[],"categories_sizes":[],"default_left":[0,0,0,0,0,0,0,0,0,0,0,0,0,0,0,0,0,0,0,0,0,0,0,0,0,0,0,0,0,0,0,0,0,0,0,0,0,0,0,0,0,0,0,0,0,0,0,0,0,0,0,0,0,0,0,0,0,0,0,0,0,0,0,0,0,0,0,0,0,0,0,0,0,0,0,0,0,0,0,0,0,0,0,0,0,0,0,0,0,0,0,0,0,0,0],"id":12,"left_children":[1,3,5,7,9,11,13,15,17,19,21,23,-1,25,27,29,31,33,35,37,39,41,43,45,-1,47,49,51,53,55,57,59,61,63,-1,-1,-1,65,-1,67,69,71,73,75,77,-1,-1,79,81,83,85,87,89,91,93,-1,-1,-1,-1,-1,-1,-1,-1,-1,-1,-1,-1,-1,-1,-1,-1,-1,-1,-1,-1,-1,-1,-1,-1,-1,-1,-1,-1,-1,-1,-1,-1,-1,-1,-1,-1,-1,-1,-1,-1],"loss_changes":[6.8448443E-4,9.0888474E-4,4.7829133E-4,1.2567615E-3,7.287472E-4,2.2361288E-5,3.3453552E-4,7.993736E-4,1.9869208E-4,2.4916898E-4,4.1686092E-4,2.0672655E-5,0E0,6.8146957E-4,3.126838E-4,1.8600724E-3,2.1187589E-4,3.2414566E-5,1.0317017E-6,1.7844261E-4,3.0606598E-4,8.3486526E-4,3.7606357E-4,3.8041326E-6,0E0,4.5437802E-4,2.3129687E-4,1.3854867E-4,1.6478595E-4,8.7102817E-4,3.6700768E-4,6.4816406E-5,1.6424328E-4,8.733012E-6,0E0,0E0,0E0,1.9767751E-6,0E0,2.581844E-4,3.6771467E-4,1.621759E-4,4.51606E-4,4.1358056E-4,2.4519753E-4,0E0,0E0,3.4950703E-4,5.073869E-4,7.207701E-5,7.011386E-5,1.7183753E-5,4.4771936E-5,7.974781E-5,9.646741E-5,0E0,0E0,0E0,0E0,0E0,0E0,0E0,0E0,0E0,0E0,0E0,0E0,0E0,0E0,0E0,0E0,0E0,0E0,0E0,0E0,0E0,0E0,0E0,0E0,0E0,0E0,0E0,0E0,0E0,0E0,0E0,0E0,0E0,0E0,0E0,0E0,0E0,0E0,0E0,0E0],"parents":[2147483647,0,0,1,1,2,2,3,3,4,4,5,5,6,6,7,7,8,8,9,9,10,10,11,11,13,13,14,14,15,15,16,16,17,17,18,18,19,19,20,20,21,21,22,22,23,23,25,25,26,26,27,27,28,28,29,29,30,30,31,31,32,32,33,33,37,37,39,39,40,40,41,41,42,42,43,43,44,44,47,47,48,48,49,49,50,50,51,51,52,52,53,53,54,54],"right_children":[2,4,6,8,10,12,14,16,18,20,22,24,-1,26,28,30,32,34,36,38,40,42,44,46,-1,48,50,52,54,56,58,60,62,64,-1,-1,-1,66,-1,68,70,72,74,76,78,-1,-1,80,82,84,86,88,90,92,94,-1,-1,-1,-1,-1,-1,-1,-1,-1,-1,-1,-1,-1,-1,-1,-1,-1,-1,-1,-1,-1,-1,-1,-1,-1,-1,-1,-1,-1,-1,-1,-1,-1,-1,-1,-1,-1,-1,-1,-1],"split_conditions":[1.1540123E2,5.9397E5,6.66746E5,1.13076256E2,4.6696872E-1,1.1637279E2,1.1986243E2,1.10256714E2,1.1485098E2,3.7049484E-1,1.8572496E-1,4.7831676E1,1.1200665E-4,1.1924229E2,1.2065841E2,1.10008415E2,-2.4112871E-1,1.1505305E2,4.2926113E1,-2.3118844E-2,1.14014626E2,-1.8039061E-1,6.58502E5,4.3782E4,2.1252956E-4,-3.2603544E-1,-1.7573876E-2,4.0437344E-1,4.829691E-1,4.3395156E-1,1.1005978E2,1.1222895E2,1.1082154E2,3.9202408E1,-3.0511405E-4,1.2458078E-4,2.2323504E-5,4.615299E1,7.611327E-4,8.12866E5,7.92386E5,5.868393E-1,1.1382034E2,1.1467681E2,1.15039604E2,5.772196E-4,2.865701E-4,4.5620906E-1,2.579848E-1,4.7046608E1,5.6202835E-1,1.1996628E2,1.575178E6,1.20136185E2,2.1263424E-1,1.6346047E-4,-1.7444441E-5,-2.935812E-4,-8.044687E-4,2.525323E-4,-1.3932044E-4,-4.7841564E-5,5.5017753E-4,-4.6376334E-4,-6.7924487E-4,3.5960547E-5,-9.523928E-5,3.1550086E-4,-2.4536118E-4,-3.14804E-4,6.820294E-5,-3.720754E-5,6.272919E-4,9.722965E-4,4.2367307E-4,6.513965E-4,-6.4753596E-4,-5.8830377E-5,3.5444784E-4,-1.02777E-5,-3.5408806E-4,-1.0214618E-5,-1.8494311E-4,1.5862536E-4,-1.4191559E-4,4.974345E-4,1.5683632E-4,5.6446104E-5,-1.9733894E-4,-3.2240068E-4,-6.2528247E-4,3.7404836E-5,-2.4968883E-4,-1.0025582E-4,1.1112872E-4],"split_indices":[3,9,9,8,6,3,3,3,3,6,5,4,0,3,7,0,5,7,4,5,0,5,9,10,0,5,5,6,6,6,2,8,7,4,0,0,0,4,0,9,9,6,0,0,2,0,0,6,5,4,6,3,9,0,5,0,0,0,0,0,0,0,0,0,0,0,0,0,0,0,0,0,0,0,0,0,0,0,0,0,0,0,0,0,0,0,0,0,0,0,0,0,0,0,0],"split_type":[0,0,0,0,0,0,0,0,0,0,0,0,0,0,0,0,0,0,0,0,0,0,0,0,0,0,0,0,0,0,0,0,0,0,0,0,0,0,0,0,0,0,0,0,0,0,0,0,0,0,0,0,0,0,0,0,0,0,0,0,0,0,0,0,0,0,0,0,0,0,0,0,0,0,0,0,0,0,0,0,0,0,0,0,0,0,0,0,0,0,0,0,0,0,0],"sum_hessian":[3.972E3,1.922E3,2.05E3,1.502E3,4.2E2,2.2E1,2.028E3,1.453E3,4.9E1,1.52E2,2.68E2,1.9E1,3E0,1.825E3,2.03E2,1.393E3,6E1,4.4E1,5E0,1E1,1.42E2,1.61E2,1.07E2,1.4E1,5E0,1.747E3,7.8E1,3.9E1,1.64E2,1.334E3,5.9E1,1.5E1,4.5E1,3.6E1,8E0,3E0,2E0,4E0,6E0,4.3E1,9.9E1,4.7E1,1.14E2,2E1,8.7E1,1E1,4E0,1.26E2,1.621E3,3.9E1,3.9E1,9E0,3E1,7.8E1,8.6E1,3.66E2,9.68E2,3.2E1,2.7E1,7E0,8E0,5E0,4E1,1.6E1,2E1,1E0,3E0,3.3E1,1E1,5.2E1,4.7E1,4.4E1,3E0,1.8E1,9.6E1,1.8E1,2E0,7E1,1.7E1,4.7E1,7.9E1,1.434E3,1.87E2,2.9E1,1E1,3E1,9E0,5E0,4E0,1.2E1,1.8E1,1.1E1,6.7E1,4.9E1,3.7E1],"tree_param":{"num_deleted":"0","num_feature":"11","num_nodes":"95","size_leaf_vector":"1"}},{"base_weights":[-4.6450543E-7,1.6768204E-4,-8.7967515E-4,1.126429E-4,3.7106413E-3,-1.5493205E-3,3.908743E-4,2.9243898E-4,-7.337805E-4,1.3367397E-3,5.612891E-3,5.6990894E-4,-1.8193305E-3,-5.4567694E-3,8.7389414E-4,8.369049E-5,1.3031593E-3,1.2826151E-3,-1.2672236E-3,3.5749053E-5,2.8710242E-3,6.1058905E-3,2.7875783E-4,-3.7424476E-3,1.2750658E-3,3.0745436E-3,-1.9494946E-3,-2.0270697E-3,-7.1432354E-4,3.9802105E-3,2.5477406E-4,1.8571349E-4,-1.8636922E-3,1.4629442E-3,-6.097369E-3,-1.905172E-3,3.554369E-3,-4.3263403E-3,-6.342993E-4,-6.708739E-4,1.4418452E-4,3.9459352E-4,1.3176091E-3,1.6180227E-4,6.236338E-3,-9.5848845E-5,-4.0466926E-4,2.9007837E-3,-1.9403955E-4,4.2745375E-4,1.0196422E-4,-4.092764E-3,-1.4577765E-3,4.1565356E-5,-3.0872898E-4,6.6768974E-3,-1.5201234E-3,-2.063121E-3,7.589992E-4,1.2882792E-4,-1.852298E-6,-2.7774743E-4,3.4061176E-4,1.9143769E-4,-1.1798955E-4,-1.6290507E-4,-7.7796413E-4,-2.3556342E-4,2.710207E-4,5.864864E-4,1.3935479E-4,-4.950724E-4,1.0106823E-4,6.378462E-6,-2.4094638E-4,-2.3269831E-4,3.4026252E-6,1.6756503E-4,-2.3629831E-5,6.3673116E-4,1.742946E-4,4.106109E-5,3.0102342E-4,-1.5246561E-4,3.065178E-4,-4.975434E-4,-1.9223712E-4,3.6588503E-7,-2.1701527E-4,-6.1553896E-5,8.244544E-4,1.2141775E-4,-2.5664657E-4,-4.7529038E-4,-1.1415795E-5,1.9022712E-4,-4.44113E-5],"categories":[],"categories_nodes":[],"categories_segments":[],"categories_sizes":[],"default_left":[0,0,0,0,0,0,0,0,0,0,0,0,0,0,0,0,0,0,0,0,0,0,0,0,0,0,0,0,0,0,0,0,0,0,0,0,0,0,0,0,0,0,0,0,0,0,0,0,0,0,0,0,0,0,0,0,0,0,0,0,0,0,0,0,0,0,0,0,0,0,0,0,0,0,0,0,0,0,0,0,0,0,0,0,0,0,0,0,0,0,0,0,0,0,0,0,0],"id":13,"left_children":[1,3,5,7,9,11,13,15,17,19,21,23,25,27,29,31,33,35,37,39,41,43,-1,45,47,49,51,53,-1,55,57,59,61,63,65,67,69,71,73,75,-1,-1,77,-1,79,-1,-1,81,83,-1,-1,85,87,-1,-1,89,91,93,95,-1,-1,-1,-1,-1,-1,-1,-1,-1,-1,-1,-1,-1,-1,-1,-1,-1,-1,-1,-1,-1,-1,-1,-1,-1,-1,-1,-1,-1,-1,-1,-1,-1,-1,-1,-1,-1,-1],"loss_changes":[5.8750086E-4,6.501067E-4,5.4342713E-4,5.0028996E-4,2.2280047E-4,2.4022197E-4,6.2898925E-4,5.718749E-4,6.2118965E-4,4.7803518E-5,2.1979911E-5,1.5073447E-4,2.4232327E-4,8.3849474E-5,3.9323844E-4,4.4697392E-4,5.575967E-4,8.830377E-4,8.801582E-4,1.4877414E-5,1.3168406E-5,3.3744727E-6,0E0,2.0503285E-6,1.0087359E-4,2.0300198E-5,3.7553988E-4,1.941201E-5,0E0,5.144607E-4,2.0258935E-4,4.812423E-4,5.487916E-4,5.45103E-4,6.249585E-5,1.1241599E-4,3.4629932E-4,2.6492693E-4,4.6981577E-4,1.1753094E-5,0E0,0E0,3.7341315E-6,0E0,1.849432E-6,0E0,0E0,4.214977E-6,1.04419014E-4,0E0,0E0,1.1878996E-4,3.0817115E-4,0E0,0E0,2.6801007E-4,3.744832E-5,1.6196832E-4,1.961636E-4,0E0,0E0,0E0,0E0,0E0,0E0,0E0,0E0,0E0,0E0,0E0,0E0,0E0,0E0,0E0,0E0,0E0,0E0,0E0,0E0,0E0,0E0,0E0,0E0,0E0,0E0,0E0,0E0,0E0,0E0,0E0,0E0,0E0,0E0,0E0,0E0,0E0,0E0],"parents":[2147483647,0,0,1,1,2,2,3,3,4,4,5,5,6,6,7,7,8,8,9,9,10,10,11,11,12,12,13,13,14,14,15,15,16,16,17,17,18,18,19,19,20,20,21,21,23,23,24,24,25,25,26,26,27,27,29,29,30,30,31,31,32,32,33,33,34,34,35,35,36,36,37,37,38,38,39,39,42,42,44,44,47,47,48,48,51,51,52,52,55,55,56,56,57,57,58,58],"right_children":[2,4,6,8,10,12,14,16,18,20,22,24,26,28,30,32,34,36,38,40,42,44,-1,46,48,50,52,54,-1,56,58,60,62,64,66,68,70,72,74,76,-1,-1,78,-1,80,-1,-1,82,84,-1,-1,86,88,-1,-1,90,92,94,96,-1,-1,-1,-1,-1,-1,-1,-1,-1,-1,-1,-1,-1,-1,-1,-1,-1,-1,-1,-1,-1,-1,-1,-1,-1,-1,-1,-1,-1,-1,-1,-1,-1,-1,-1,-1,-1,-1],"split_conditions":[1.18834015E2,1.521818E6,1.4043868E-1,2.3188105E-1,1.1719227E2,1.20478E6,1.046397E6,1.3587576E-1,2.00137E5,1.784055E6,6.3761135E1,1.1700737E2,-5.8756536E-1,1.1852099E2,1.8883638E-1,6.4124245E1,7.609339E1,1.00158714E2,1.05928276E2,2.623E4,1.17828354E2,3.1269201E1,2.7875783E-4,1.1681976E2,-8.8687114E-2,2.4888186E1,1.1838206E2,1.1832156E2,-7.1432354E-4,1.585016E6,1.17517654E2,9.973395E1,1.17383194E2,1.235289E6,1.0096654E2,1.64185E5,1.26751E5,5.6136715E-1,1.051519E6,1.534986E6,1.4418452E-4,3.9459352E-4,1.182454E2,1.6180227E-4,1.846998E6,-9.5848845E-5,-4.0466926E-4,1.1705902E2,1.194445E6,4.2745375E-4,1.0196422E-4,1.49043E6,1.534986E6,4.1565356E-5,-3.0872898E-4,1.352455E6,4.5988483E1,1.608624E6,1.2009733E2,1.2882792E-4,-1.852298E-6,-2.7774743E-4,3.4061176E-4,1.9143769E-4,-1.1798955E-4,-1.6290507E-4,-7.7796413E-4,-2.3556342E-4,2.710207E-4,5.864864E-4,1.3935479E-4,-4.950724E-4,1.0106823E-4,6.378462E-6,-2.4094638E-4,-2.3269831E-4,3.4026252E-6,1.6756503E-4,-2.3629831E-5,6.3673116E-4,1.742946E-4,4.106109E-5,3.0102342E-4,-1.5246561E-4,3.065178E-4,-4.975434E-4,-1.9223712E-4,3.6588503E-7,-2.1701527E-4,-6.1553896E-5,8.244544E-4,1.2141775E-4,-2.5664657E-4,-4.7529038E-4,-1.1415795E-5,1.9022712E-4,-4.44113E-5],"split_indices":[7,9,5,5,8,9,9,5,9,9,4,8,5,0,5,4,4,0,7,10,2,4,0,8,5,4,0,0,0,9,8,7,7,9,0,9,9,5,9,9,0,0,0,0,9,0,0,8,9,0,0,9,9,0,0,9,4,9,2,0,0,0,0,0,0,0,0,0,0,0,0,0,0,0,0,0,0,0,0,0,0,0,0,0,0,0,0,0,0,0,0,0,0,0,0,0,0],"split_type":[0,0,0,0,0,0,0,0,0,0,0,0,0,0,0,0,0,0,0,0,0,0,0,0,0,0,0,0,0,0,0,0,0,0,0,0,0,0,0,0,0,0,0,0,0,0,0,0,0,0,0,0,0,0,0,0,0,0,0,0,0,0,0,0,0,0,0,0,0,0,0,0,0,0,0,0,0,0,0,0,0,0,0,0,0,0,0,0,0,0,0,0,0,0,0,0,0],"sum_hessian":[3.972E3,3.335E3,6.37E2,3.285E3,5E1,4.17E2,2.2E2,2.71E3,5.75E2,2.3E1,2.7E1,4.7E1,3.7E2,1.6E1,2.04E2,2.247E3,4.63E2,1.2E2,4.55E2,1.3E1,1E1,2.2E1,5E0,6E0,4.1E1,9E0,3.61E2,6E0,1E1,3.3E1,1.71E2,2.136E3,1.11E2,4.54E2,9E0,5E1,7E1,7.7E1,3.78E2,9E0,4E0,5E0,5E0,1E0,2.1E1,1E0,5E0,1.9E1,2.2E1,5E0,4E0,6.6E1,2.95E2,2E0,4E0,2.2E1,1.1E1,3E1,1.41E2,3.33E2,1.803E3,9.5E1,1.6E1,3.88E2,6.6E1,3E0,6E0,4.6E1,4E0,3.3E1,3.7E1,6.9E1,8E0,2.72E2,1.06E2,2E0,7E0,4E0,1E0,2E1,1E0,1E0,1.8E1,1.6E1,6E0,4.6E1,2E1,9.7E1,1.98E2,4E0,1.8E1,3E0,8E0,1.2E1,1.8E1,7.2E1,6.9E1],"tree_param":{"num_deleted":"0","num_feature":"11","num_nodes":"97","size_leaf_vector":"1"}},{"base_weights":[-3.9690087E-7,1.8822237E-4,-6.5779634E-4,3.637269E-4,-7.059412E-4,-2.3974106E-3,-3.554852E-4,-3.2665857E-4,6.50274E-4,1.0324307E-3,-1.4886749E-3,-4.014876E-3,-4.1649488E-4,-8.01919E-4,6.6897616E-4,9.778292E-4,-1.6475808E-3,8.878499E-3,5.2642054E-4,-3.0150448E-3,2.6210619E-3,-3.2606763E-3,-5.9631234E-4,-6.2266667E-3,-2.7059098E-3,6.2962854E-4,-1.9062528E-3,2.0563365E-3,-1.2660357E-3,-2.5988687E-3,9.925751E-4,-3.6629E-5,5.2006636E-3,4.658804E-3,-2.1865002E-3,1.0320871E-3,6.531262E-4,2.3555495E-3,2.4603092E-4,1.5844441E-4,-3.926283E-3,7.3297117E-3,2.0978292E-3,-1.6359814E-3,-5.0624055E-3,-2.6392168E-3,3.8392076E-4,-7.418548E-3,-1.9317659E-3,-7.0673006E-4,-2.0184275E-3,-2.118556E-3,1.1412246E-3,-3.3687656E-3,-2.9710538E-4,-2.271323E-3,2.9305823E-3,4.357798E-3,-1.3766825E-3,8.970321E-4,-6.534063E-3,1.9143603E-3,-4.6965512E-4,-2.6239217E-5,6.7399285E-4,1.0222606E-3,2.5856786E-4,1.7260182E-4,1.0351774E-3,-1.7782541E-4,-6.454634E-4,-2.4223012E-4,3.5377438E-4,-3.1698792E-4,4.57181E-5,-1.0224406E-4,1.7799946E-4,-8.787119E-4,-3.015623E-4,1.7297335E-4,8.381959E-4,-3.963611E-5,2.5897555E-4,1.5500053E-4,-3.1538823E-4,-3.921136E-6,-5.4556126E-4,-2.155399E-4,-1.0809088E-3,6.288242E-4,1.1127916E-5,-9.1921145E-5,-8.5114193E-4,3.4389235E-5,-2.9108077E-4,-4.2665128E-5,-4.117093E-4,-3.1990427E-4,2.8278018E-6,2.5078762E-4,-1.3177504E-5,-3.534107E-4,-6.92333E-5,1.7980461E-5,-1.4151039E-4,1.7996655E-4,-4.2806144E-4,3.702816E-4,-9.863924E-5,-1.12770475E-4,5.184449E-4,6.2753614E-5,-1.6778997E-4,-4.210196E-4,2.3394974E-4,-1.7922357E-4,-6.861795E-4,3.927254E-5,4.4739377E-4,-1.910568E-4,6.4401545E-5],"categories":[],"categories_nodes":[],"categories_segments":[],"categories_sizes":[],"default_left":[0,0,0,0,0,0,0,0,0,0,0,0,0,0,0,0,0,0,0,0,0,0,0,0,0,0,0,0,0,0,0,0,0,0,0,0,0,0,0,0,0,0,0,0,0,0,0,0,0,0,0,0,0,0,0,0,0,0,0,0,0,0,0,0,0,0,0,0,0,0,0,0,0,0,0,0,0,0,0,0,0,0,0,0,0,0,0,0,0,0,0,0,0,0,0,0,0,0,0,0,0,0,0,0,0,0,0,0,0,0,0,0,0,0,0,0,0,0,0,0,0],"id":14,"left_children":[1,3,5,7,9,11,13,15,17,19,21,23,25,27,29,31,33,35,37,39,41,43,45,47,49,51,53,55,57,59,61,63,65,67,69,-1,-1,71,73,75,77,79,81,83,85,87,89,91,93,-1,95,97,99,101,103,105,107,109,111,113,115,117,119,-1,-1,-1,-1,-1,-1,-1,-1,-1,-1,-1,-1,-1,-1,-1,-1,-1,-1,-1,-1,-1,-1,-1,-1,-1,-1,-1,-1,-1,-1,-1,-1,-1,-1,-1,-1,-1,-1,-1,-1,-1,-1,-1,-1,-1,-1,-1,-1,-1,-1,-1,-1,-1,-1,-1,-1,-1,-1],"loss_changes":[4.9276865E-4,4.8485582E-4,4.6509947E-4,5.1100424E-4,6.9140294E-4,4.1806023E-4,3.4629623E-4,1.3077412E-3,1.8551729E-3,1.0238341E-3,5.5149937E-4,1.916025E-4,9.470847E-5,7.017028E-4,2.4579788E-4,1.6366361E-3,1.2914711E-3,2.4002511E-5,9.220714E-4,1.307533E-4,2.6548753E-4,3.3420743E-4,4.6960352E-4,1.18763535E-4,1.2665897E-4,5.303233E-5,5.783409E-5,2.8663073E-4,2.8850493E-4,2.947593E-4,2.8395018E-4,4.745067E-4,9.453581E-4,4.830205E-4,5.948943E-4,0E0,0E0,1.3585244E-3,1.1273511E-3,2.2883445E-5,1.2843125E-4,5.031959E-5,1.2863014E-4,3.0955725E-4,1.08419685E-4,2.7710956E-4,2.5525264E-4,1.3423478E-4,1.6596758E-5,0E0,1.3854887E-4,1.4008214E-5,5.4262626E-5,3.3060496E-6,7.1858435E-6,1.1404109E-4,1.9119121E-4,4.6657908E-5,2.7030532E-4,9.825373E-5,3.242516E-6,5.0066464E-4,1.3281601E-4,0E0,0E0,0E0,0E0,0E0,0E0,0E0,0E0,0E0,0E0,0E0,0E0,0E0,0E0,0E0,0E0,0E0,0E0,0E0,0E0,0E0,0E0,0E0,0E0,0E0,0E0,0E0,0E0,0E0,0E0,0E0,0E0,0E0,0E0,0E0,0E0,0E0,0E0,0E0,0E0,0E0,0E0,0E0,0E0,0E0,0E0,0E0,0E0,0E0,0E0,0E0,0E0,0E0,0E0,0E0,0E0,0E0,0E0],"parents":[2147483647,0,0,1,1,2,2,3,3,4,4,5,5,6,6,7,7,8,8,9,9,10,10,11,11,12,12,13,13,14,14,15,15,16,16,17,17,18,18,19,19,20,20,21,21,22,22,23,23,24,24,25,25,26,26,27,27,28,28,29,29,30,30,31,31,32,32,33,33,34,34,37,37,38,38,39,39,40,40,41,41,42,42,43,43,44,44,45,45,46,46,47,47,48,48,50,50,51,51,52,52,53,53,54,54,55,55,56,56,57,57,58,58,59,59,60,60,61,61,62,62],"right_children":[2,4,6,8,10,12,14,16,18,20,22,24,26,28,30,32,34,36,38,40,42,44,46,48,50,52,54,56,58,60,62,64,66,68,70,-1,-1,72,74,76,78,80,82,84,86,88,90,92,94,-1,96,98,100,102,104,106,108,110,112,114,116,118,120,-1,-1,-1,-1,-1,-1,-1,-1,-1,-1,-1,-1,-1,-1,-1,-1,-1,-1,-1,-1,-1,-1,-1,-1,-1,-1,-1,-1,-1,-1,-1,-1,-1,-1,-1,-1,-1,-1,-1,-1,-1,-1,-1,-1,-1,-1,-1,-1,-1,-1,-1,-1,-1,-1,-1,-1,-1,-1],"split_conditions":[1.1750656E2,6.528417E1,1.1703676E2,1.032402E2,2.40852E5,1.368E6,1.4043868E-1,9.973395E1,1.0414654E2,9.815692E1,1.1089757E2,4.8419818E-1,2.4828638E-1,1.20478E6,1.163428E6,9.825986E1,-3.03679E5,-8.414095E-2,1.1042717E2,9.793239E1,-2.23337E5,4.617755E-1,4.6781382E-1,1.1779158E2,1.1746237E2,9.157E3,1.508068E6,9.10518E5,1.1801918E2,1.1811136E2,1.2013451E2,5.5831E4,9.873506E1,9.997647E1,1.01542244E2,1.0320871E-3,6.531262E-4,1.0611881E2,1.1015403E2,3.5925E4,9.873867E1,1.0051115E2,6.790449E1,3.07681E5,1.3387631E-1,1.17454544E2,1.1153348E2,3.467371E1,1.17953804E2,-7.0673006E-4,1.08763E6,1.1760381E2,1.1856677E2,5.191747E-1,3.1741E4,-1.16150446E-1,1.1871496E2,1.1748008E2,4.1184112E-1,1.1773543E2,1.1856404E2,1.1821713E2,4.829691E-1,-2.6239217E-5,6.7399285E-4,1.0222606E-3,2.5856786E-4,1.7260182E-4,1.0351774E-3,-1.7782541E-4,-6.454634E-4,-2.4223012E-4,3.5377438E-4,-3.1698792E-4,4.57181E-5,-1.0224406E-4,1.7799946E-4,-8.787119E-4,-3.015623E-4,1.7297335E-4,8.381959E-4,-3.963611E-5,2.5897555E-4,1.5500053E-4,-3.1538823E-4,-3.921136E-6,-5.4556126E-4,-2.155399E-4,-1.0809088E-3,6.288242E-4,1.1127916E-5,-9.1921145E-5,-8.5114193E-4,3.4389235E-5,-2.9108077E-4,-4.2665128E-5,-4.117093E-4,-3.1990427E-4,2.8278018E-6,2.5078762E-4,-1.3177504E-5,-3.534107E-4,-6.92333E-5,1.7980461E-5,-1.4151039E-4,1.7996655E-4,-4.2806144E-4,3.702816E-4,-9.863924E-5,-1.12770475E-4,5.184449E-4,6.2753614E-5,-1.6778997E-4,-4.210196E-4,2.3394974E-4,-1.7922357E-4,-6.861795E-4,3.927254E-5,4.4739377E-4,-1.910568E-4,6.4401545E-5],"split_indices":[2,4,8,0,9,9,5,7,2,8,0,6,5,9,9,8,9,5,7,3,9,6,6,2,3,10,9,9,7,0,1,9,0,1,2,0,0,0,3,10,7,0,4,9,5,0,0,4,3,0,9,3,7,6,10,5,0,0,6,0,0,8,6,0,0,0,0,0,0,0,0,0,0,0,0,0,0,0,0,0,0,0,0,0,0,0,0,0,0,0,0,0,0,0,0,0,0,0,0,0,0,0,0,0,0,0,0,0,0,0,0,0,0,0,0,0,0,0,0,0,0],"split_type":[0,0,0,0,0,0,0,0,0,0,0,0,0,0,0,0,0,0,0,0,0,0,0,0,0,0,0,0,0,0,0,0,0,0,0,0,0,0,0,0,0,0,0,0,0,0,0,0,0,0,0,0,0,0,0,0,0,0,0,0,0,0,0,0,0,0,0,0,0,0,0,0,0,0,0,0,0,0,0,0,0,0,0,0,0,0,0,0,0,0,0,0,0,0,0,0,0,0,0,0,0,0,0,0,0,0,0,0,0,0,0,0,0,0,0,0,0,0,0,0,0],"sum_hessian":[3.972E3,3.087E3,8.85E2,2.581E3,5.06E2,1.3E2,7.55E2,7.57E2,1.824E3,1.57E2,3.49E2,7.1E1,5.9E1,5.26E2,2.29E2,3.81E2,3.76E2,2.6E1,1.798E3,4.4E1,1.13E2,1.16E2,2.33E2,2.5E1,4.6E1,3.5E1,2.4E1,7.3E1,4.53E2,2E1,2.09E2,3.08E2,7.3E1,2.9E1,3.47E2,1.4E1,1.2E1,2.38E2,1.56E3,1E1,3.4E1,1E1,1.03E2,6.2E1,5.4E1,7.5E1,1.58E2,1.9E1,6E0,5E0,4.1E1,5E0,3E1,1.2E1,1.2E1,1.2E1,6.1E1,8E0,4.45E2,1.1E1,9E0,1.28E2,8.1E1,2.99E2,9E0,2.4E1,4.9E1,2E1,9E0,3.18E2,2.9E1,4.7E1,1.91E2,9E1,1.47E3,6E0,4E0,4E0,3E1,2E0,8E0,1.7E1,8.6E1,2E1,4.2E1,4E0,5E1,7.2E1,3E0,6E0,1.52E2,3E0,1.6E1,2E0,4E0,2.4E1,1.7E1,3E0,2E0,1.4E1,1.6E1,1.1E1,1E0,9E0,3E0,4E0,8E0,5.1E1,1E1,1E0,7E0,5.8E1,3.87E2,2E0,9E0,1E0,8E0,8.1E1,4.7E1,3.5E1,4.6E1],"tree_param":{"num_deleted":"0","num_feature":"11","num_nodes":"121","size_leaf_vector":"1"}},{"base_weights":[-5.4765144E-7,3.388034E-4,-3.3989843E-4,2.486145E-5,1.3110013E-3,-3.302015E-3,-2.4118982E-4,1.7866373E-4,-4.448206E-3,2.0332262E-5,2.224396E-3,6.126905E-4,-4.0327245E-3,3.7292393E-3,-2.8907557E-4,4.0502007E-5,3.3330698E-3,-5.0539E-3,8.358696E-4,4.143765E-3,-2.3883804E-4,-1.17345335E-4,2.7252696E-3,-5.505878E-3,-8.1112346E-4,4.087993E-3,1.00316225E-4,-1.6955081E-4,-1.2831122E-3,2.2043327E-4,-5.358336E-3,3.9703722E-4,4.2818408E-3,-6.3808594E-4,-4.1777254E-3,1.269414E-4,3.017439E-5,-6.0321327E-4,6.592656E-3,3.9625303E-3,-5.42631E-4,9.638903E-4,-3.0437459E-3,4.6520922E-3,1.327066E-3,-6.1253514E-3,1.7555873E-3,7.698203E-4,-1.9292376E-3,4.686004E-3,1.9116329E-4,-2.8789698E-4,2.2609388E-3,-3.5259193E-3,-7.3162495E-4,1.1176325E-4,-3.2390923E-5,-8.314222E-4,-3.2667545E-4,2.2659749E-4,-1.3083559E-4,-4.7510257E-5,4.8735435E-4,-3.0493696E-4,-5.849489E-4,3.1969226E-5,-9.1386275E-5,6.9818617E-4,1.9341071E-4,5.4782996E-4,-2.9161328E-4,-2.1375412E-4,7.496996E-6,3.8713224E-5,5.769551E-4,-4.3054E-4,1.1867392E-4,1.0817234E-3,3.9838883E-4,6.1131956E-4,9.42782E-5,-6.780701E-4,1.1402953E-4,-7.497468E-5,2.8406142E-4,1.86489E-4,-8.852947E-6,-3.3469063E-5,-2.4235656E-4,5.207573E-4,2.6013525E-4,-3.474409E-5,2.7773384E-4,1.4698278E-4,4.243825E-4,-4.273005E-4,-3.4512632E-7,-4.757238E-6,-1.7832816E-4],"categories":[],"categories_nodes":[],"categories_segments":[],"categories_sizes":[],"default_left":[0,0,0,0,0,0,0,0,0,0,0,0,0,0,0,0,0,0,0,0,0,0,0,0,0,0,0,0,0,0,0,0,0,0,0,0,0,0,0,0,0,0,0,0,0,0,0,0,0,0,0,0,0,0,0,0,0,0,0,0,0,0,0,0,0,0,0,0,0,0,0,0,0,0,0,0,0,0,0,0,0,0,0,0,0,0,0,0,0,0,0,0,0,0,0,0,0,0,0],"id":15,"left_children":[1,3,5,7,9,11,13,15,17,19,21,-1,23,25,27,29,31,33,35,37,39,41,43,45,47,49,-1,51,53,55,57,59,61,-1,63,-1,-1,65,67,69,71,73,75,77,79,81,83,85,87,89,-1,91,93,95,97,-1,-1,-1,-1,-1,-1,-1,-1,-1,-1,-1,-1,-1,-1,-1,-1,-1,-1,-1,-1,-1,-1,-1,-1,-1,-1,-1,-1,-1,-1,-1,-1,-1,-1,-1,-1,-1,-1,-1,-1,-1,-1,-1,-1],"loss_changes":[4.5764202E-4,6.0642697E-4,5.801753E-4,1.0348106E-3,5.717166E-4,4.6565552E-4,3.668823E-4,6.335447E-4,1.6425119E-4,2.1686128E-4,3.3342803E-4,0E0,2.8028886E-4,1.8392835E-5,2.2576281E-4,1.3553404E-3,1.6822282E-4,2.5661662E-5,1.006365E-6,1.4347475E-4,2.4593234E-4,1.6430438E-4,6.242434E-4,1.9518321E-4,3.6838675E-5,1.7071841E-5,0E0,4.8934977E-4,2.497438E-4,6.5968E-4,2.5105092E-4,5.396107E-5,1.317914E-4,0E0,3.875309E-5,0E0,0E0,1.7256552E-6,1.0014046E-6,1.5151949E-4,1.7647848E-4,1.03091144E-4,7.983312E-5,3.6062347E-4,2.462115E-4,1.8867047E-4,1.3003163E-5,8.624671E-6,8.647603E-6,2.762623E-6,0E0,2.9682368E-4,1.17688294E-4,1.05248706E-4,1.1861426E-4,0E0,0E0,0E0,0E0,0E0,0E0,0E0,0E0,0E0,0E0,0E0,0E0,0E0,0E0,0E0,0E0,0E0,0E0,0E0,0E0,0E0,0E0,0E0,0E0,0E0,0E0,0E0,0E0,0E0,0E0,0E0,0E0,0E0,0E0,0E0,0E0,0E0,0E0,0E0,0E0,0E0,0E0,0E0,0E0],"parents":[2147483647,0,0,1,1,2,2,3,3,4,4,5,5,6,6,7,7,8,8,9,9,10,10,12,12,13,13,14,14,15,15,16,16,17,17,18,18,19,19,20,20,21,21,22,22,23,23,24,24,25,25,27,27,28,28,29,29,30,30,31,31,32,32,34,34,37,37,38,38,39,39,40,40,41,41,42,42,43,43,44,44,45,45,46,46,47,47,48,48,49,49,51,51,52,52,53,53,54,54],"right_children":[2,4,6,8,10,12,14,16,18,20,22,-1,24,26,28,30,32,34,36,38,40,42,44,46,48,50,-1,52,54,56,58,60,62,-1,64,-1,-1,66,68,70,72,74,76,78,80,82,84,86,88,90,-1,92,94,96,98,-1,-1,-1,-1,-1,-1,-1,-1,-1,-1,-1,-1,-1,-1,-1,-1,-1,-1,-1,-1,-1,-1,-1,-1,-1,-1,-1,-1,-1,-1,-1,-1,-1,-1,-1,-1,-1,-1,-1,-1,-1,-1,-1,-1],"split_conditions":[1.1555146E2,5.9397E5,1.15649796E2,1.13076256E2,4.6696872E-1,2.4888186E1,6.66746E5,1.10256714E2,1.1485098E2,3.7049484E-1,-1.8039061E-1,6.126905E-4,-5.824954E-2,1.1637279E2,1.1986243E2,1.1008761E2,-2.4112871E-1,1.1408879E2,5.3041273E-1,-2.3118844E-2,6.43062E5,1.159742E2,5.543251E1,1.1524136E2,5.1745014E1,4.7831676E1,1.00316225E-4,1.1924229E2,1.2065841E2,4.5103595E-1,8.481127E-2,1.1222895E2,1.1082154E2,-6.3808594E-4,1.14055214E2,1.269414E-4,3.017439E-5,4.615299E1,4.0844E4,3.4224E4,7.43676E5,5.868393E-1,1.1507962E2,1.1354064E2,1.1139791E2,1.11697E6,1.1551369E2,9.012E3,6.599E3,4.3782E4,1.9116329E-4,1.823068E6,2.6655546E-1,-2.3118844E-2,1.21095375E2,1.1176325E-4,-3.2390923E-5,-8.314222E-4,-3.2667545E-4,2.2659749E-4,-1.3083559E-4,-4.7510257E-5,4.8735435E-4,-3.0493696E-4,-5.849489E-4,3.1969226E-5,-9.1386275E-5,6.9818617E-4,1.9341071E-4,5.4782996E-4,-2.9161328E-4,-2.1375412E-4,7.496996E-6,3.8713224E-5,5.769551E-4,-4.3054E-4,1.1867392E-4,1.0817234E-3,3.9838883E-4,6.1131956E-4,9.42782E-5,-6.780701E-4,1.1402953E-4,-7.497468E-5,2.8406142E-4,1.86489E-4,-8.852947E-6,-3.3469063E-5,-2.4235656E-4,5.207573E-4,2.6013525E-4,-3.474409E-5,2.7773384E-4,1.4698278E-4,4.243825E-4,-4.273005E-4,-3.4512632E-7,-4.757238E-6,-1.7832816E-4],"split_indices":[2,9,1,8,6,4,9,3,3,6,5,0,5,3,3,0,5,1,6,5,9,7,4,8,4,4,0,3,7,6,5,8,7,0,8,0,0,4,10,10,9,6,0,7,1,9,0,10,10,10,0,9,5,5,2,0,0,0,0,0,0,0,0,0,0,0,0,0,0,0,0,0,0,0,0,0,0,0,0,0,0,0,0,0,0,0,0,0,0,0,0,0,0,0,0,0,0,0,0],"split_type":[0,0,0,0,0,0,0,0,0,0,0,0,0,0,0,0,0,0,0,0,0,0,0,0,0,0,0,0,0,0,0,0,0,0,0,0,0,0,0,0,0,0,0,0,0,0,0,0,0,0,0,0,0,0,0,0,0,0,0,0,0,0,0,0,0,0,0,0,0,0,0,0,0,0,0,0,0,0,0,0,0,0,0,0,0,0,0,0,0,0,0,0,0,0,0,0,0,0,0],"sum_hessian":[3.972E3,1.986E3,1.986E3,1.502E3,4.84E2,6.3E1,1.923E3,1.453E3,4.9E1,2.01E2,2.83E2,4E0,5.9E1,2.2E1,1.901E3,1.393E3,6E1,4.4E1,5E0,1.1E1,1.9E2,5E1,2.33E2,4E1,1.9E1,1.9E1,3E0,1.698E3,2.03E2,1.349E3,4.4E1,1.5E1,4.5E1,1.5E1,2.9E1,2E0,3E0,4E0,7E0,1.2E1,1.78E2,3.7E1,1.3E1,9.7E1,1.36E2,3.7E1,3E0,8E0,1.1E1,1.4E1,5E0,1.62E3,7.8E1,3.9E1,1.64E2,5.09E2,8.4E2,1.7E1,2.7E1,7E0,8E0,5E0,4E1,1.9E1,1E1,1E0,3E0,6E0,1E0,1E1,2E0,4.9E1,1.29E2,3.4E1,3E0,1E1,3E0,8E0,8.9E1,9E0,1.27E2,3.4E1,3E0,1E0,2E0,3E0,5E0,3E0,8E0,1E1,4E0,1.59E3,3E1,5.7E1,2.1E1,3.2E1,7E0,1E2,6.4E1],"tree_param":{"num_deleted":"0","num_feature":"11","num_nodes":"99","size_leaf_vector":"1"}},{"base_weights":[2.3532168E-7,1.3635981E-4,-7.1153825E-4,8.671905E-5,3.332109E-3,-2.0947945E-3,-2.632991E-4,2.728163E-4,-5.165881E-4,1.2371358E-3,5.008796E-3,-3.0179552E-3,-5.2590366E-4,9.783574E-4,-1.0510293E-3,-1.10471905E-4,6.8206346E-4,8.2287425E-4,-1.0764058E-3,1.3415927E-4,2.5284574E-3,5.4643315E-4,2.4277794E-4,-3.4347137E-3,5.420693E-4,8.210415E-4,-4.9140165E-4,-1.6575931E-4,4.139435E-3,-3.2492797E-3,-5.470838E-4,1.50683E-4,-1.5199069E-3,-4.4745235E-3,8.2981464E-4,-2.7872669E-3,2.1798564E-3,-2.9647509E-3,-4.006679E-4,-4.932309E-4,1.3621077E-4,3.5254876E-4,1.110018E-3,-2.202663E-3,-4.619899E-3,2.658064E-3,-3.4749106E-4,-5.3651338E-3,1.9271496E-4,7.870115E-5,6.625733E-3,-7.616388E-4,-5.800847E-3,1.3487389E-3,-1.4231758E-3,-7.909667E-6,2.8846398E-4,-5.238199E-4,-4.8787726E-5,-4.7362322E-4,2.0809328E-4,3.20907E-4,4.3518925E-5,4.2558793E-5,-3.8001506E-4,9.4849087E-4,1.848706E-4,-1.7634625E-4,-4.934242E-4,2.1951497E-4,-7.819196E-5,-2.0044633E-4,1.3513514E-5,1.4747263E-4,-3.5676163E-5,-1.2566593E-4,-5.671812E-4,-5.506209E-4,-3.1480702E-4,-1.2795975E-4,2.9649617E-4,2.4719123E-4,-7.6788034E-5,-6.260978E-4,-2.680084E-4,-3.9517583E-4,4.2326374E-5,1.870432E-4,-2.8426992E-4,8.865081E-4,3.2733046E-4,7.624874E-5,-2.2349891E-4,-6.973545E-4,-2.6806127E-4,2.793675E-4,-2.6374558E-4,-3.4668847E-4,-9.281991E-5],"categories":[],"categories_nodes":[],"categories_segments":[],"categories_sizes":[],"default_left":[0,0,0,0,0,0,0,0,0,0,0,0,0,0,0,0,0,0,0,0,0,0,0,0,0,0,0,0,0,0,0,0,0,0,0,0,0,0,0,0,0,0,0,0,0,0,0,0,0,0,0,0,0,0,0,0,0,0,0,0,0,0,0,0,0,0,0,0,0,0,0,0,0,0,0,0,0,0,0,0,0,0,0,0,0,0,0,0,0,0,0,0,0,0,0,0,0,0,0],"id":16,"left_children":[1,3,5,7,9,11,13,15,17,19,21,23,25,27,29,31,33,35,37,39,41,-1,-1,43,-1,45,-1,47,49,51,53,55,57,59,61,63,65,67,69,71,-1,-1,73,75,77,79,81,83,85,87,89,91,93,95,97,-1,-1,-1,-1,-1,-1,-1,-1,-1,-1,-1,-1,-1,-1,-1,-1,-1,-1,-1,-1,-1,-1,-1,-1,-1,-1,-1,-1,-1,-1,-1,-1,-1,-1,-1,-1,-1,-1,-1,-1,-1,-1,-1,-1],"loss_changes":[3.8504024E-4,5.2893226E-4,3.9502734E-4,3.6907263E-4,1.7294678E-4,2.2435369E-4,4.7344592E-4,3.9410667E-4,5.8202306E-4,3.384392E-5,1.9654632E-5,3.632725E-4,3.5275688E-4,6.806147E-4,3.2613068E-4,4.7799796E-4,9.2941156E-4,1.1279234E-3,6.9679855E-4,1.1457471E-5,1.164314E-5,0E0,0E0,1.2708339E-4,0E0,9.966821E-5,0E0,2.6010798E-4,5.042883E-4,3.4468796E-4,4.0386093E-4,6.8874384E-4,7.7643397E-4,6.818684E-5,1.1084005E-3,2.0663481E-4,3.8645015E-4,3.3199217E-4,4.01539E-4,9.766944E-6,0E0,0E0,3.7358054E-6,1.5040024E-4,4.3977518E-5,2.5546207E-5,3.6270292E-5,4.868547E-6,1.2684356E-4,1.1000434E-4,2.0370679E-4,6.682573E-5,8.0102065E-5,4.5087247E-4,1.6470568E-4,0E0,0E0,0E0,0E0,0E0,0E0,0E0,0E0,0E0,0E0,0E0,0E0,0E0,0E0,0E0,0E0,0E0,0E0,0E0,0E0,0E0,0E0,0E0,0E0,0E0,0E0,0E0,0E0,0E0,0E0,0E0,0E0,0E0,0E0,0E0,0E0,0E0,0E0,0E0,0E0,0E0,0E0,0E0,0E0],"parents":[2147483647,0,0,1,1,2,2,3,3,4,4,5,5,6,6,7,7,8,8,9,9,10,10,11,11,12,12,13,13,14,14,15,15,16,16,17,17,18,18,19,19,20,20,23,23,25,25,27,27,28,28,29,29,30,30,31,31,32,32,33,33,34,34,35,35,36,36,37,37,38,38,39,39,42,42,43,43,44,44,45,45,46,46,47,47,48,48,49,49,50,50,51,51,52,52,53,53,54,54],"right_children":[2,4,6,8,10,12,14,16,18,20,22,24,26,28,30,32,34,36,38,40,42,-1,-1,44,-1,46,-1,48,50,52,54,56,58,60,62,64,66,68,70,72,-1,-1,74,76,78,80,82,84,86,88,90,92,94,96,98,-1,-1,-1,-1,-1,-1,-1,-1,-1,-1,-1,-1,-1,-1,-1,-1,-1,-1,-1,-1,-1,-1,-1,-1,-1,-1,-1,-1,-1,-1,-1,-1,-1,-1,-1,-1,-1,-1,-1,-1,-1,-1,-1,-1],"split_conditions":[1.18834015E2,1.521818E6,1.185533E2,6.151265E1,1.1719227E2,1.49043E6,1.554729E6,-2.1021793E-2,2.40852E5,1.784055E6,6.3761135E1,1.179267E2,1.179267E2,5.340634E1,1.1991758E2,1.16244675E2,-4.03762E5,9.8138214E1,1.1089757E2,2.623E4,1.17828354E2,5.4643315E-4,2.4277794E-4,1.235289E6,5.420693E-4,1.622429E6,-4.9140165E-4,1.1758005E2,1.403759E6,1.1886342E2,1.1986243E2,1.11697E6,1.17474976E2,9.841959E1,3.3149E4,9.793239E1,-3.27031E5,4.7308964E-1,1.1439087E2,1.534986E6,1.3621077E-4,3.5254876E-4,1.182454E2,3.120354E-1,5.112264E-1,1.1793387E2,1.1775928E2,1.1894787E2,9.60082E5,1.19036095E2,2.2758213E-1,1.0821729E-1,1.1852928E2,5.4179376E-1,1.20822044E2,-7.909667E-6,2.8846398E-4,-5.238199E-4,-4.8787726E-5,-4.7362322E-4,2.0809328E-4,3.20907E-4,4.3518925E-5,4.2558793E-5,-3.8001506E-4,9.4849087E-4,1.848706E-4,-1.7634625E-4,-4.934242E-4,2.1951497E-4,-7.819196E-5,-2.0044633E-4,1.3513514E-5,1.4747263E-4,-3.5676163E-5,-1.2566593E-4,-5.671812E-4,-5.506209E-4,-3.1480702E-4,-1.2795975E-4,2.9649617E-4,2.4719123E-4,-7.6788034E-5,-6.260978E-4,-2.680084E-4,-3.9517583E-4,4.2326374E-5,1.870432E-4,-2.8426992E-4,8.865081E-4,3.2733046E-4,7.624874E-5,-2.2349891E-4,-6.973545E-4,-2.6806127E-4,2.793675E-4,-2.6374558E-4,-3.4668847E-4,-9.281991E-5],"split_indices":[7,9,3,4,8,9,9,5,9,9,4,8,8,4,7,8,9,8,0,10,2,0,0,9,0,9,0,8,9,3,3,9,7,0,9,3,9,6,7,9,0,0,0,5,6,2,0,3,9,1,5,5,8,6,7,0,0,0,0,0,0,0,0,0,0,0,0,0,0,0,0,0,0,0,0,0,0,0,0,0,0,0,0,0,0,0,0,0,0,0,0,0,0,0,0,0,0,0,0],"split_type":[0,0,0,0,0,0,0,0,0,0,0,0,0,0,0,0,0,0,0,0,0,0,0,0,0,0,0,0,0,0,0,0,0,0,0,0,0,0,0,0,0,0,0,0,0,0,0,0,0,0,0,0,0,0,0,0,0,0,0,0,0,0,0,0,0,0,0,0,0,0,0,0,0,0,0,0,0,0,0,0,0,0,0,0,0,0,0,0,0,0,0,0,0,0,0,0,0,0,0],"sum_hessian":[3.972E3,3.335E3,6.37E2,3.285E3,5E1,1.55E2,4.82E2,2.511E3,7.74E2,2.3E1,2.7E1,9.7E1,5.8E1,1.87E2,2.95E2,1.297E3,1.214E3,2.28E2,5.46E2,1.3E1,1E1,2.2E1,5E0,9.3E1,4E0,4.5E1,1.3E1,1.38E2,4.9E1,5.4E1,2.41E2,1.095E3,2.02E2,3.3E1,1.181E3,6.2E1,1.66E2,1.43E2,4.03E2,9E0,4E0,5E0,5E0,4.7E1,4.6E1,1.7E1,2.8E1,8E0,1.3E2,1.9E1,3E1,2.8E1,2.6E1,7.6E1,1.65E2,1.011E3,8.4E1,4.3E1,1.59E2,3.2E1,1E0,1.67E2,1.014E3,1.5E1,4.7E1,6E0,1.6E2,9E1,5.3E1,5.1E1,3.52E2,2E0,7E0,4E0,1E0,3.8E1,9E0,2.7E1,1.9E1,1E0,1.6E1,3E0,2.5E1,5E0,3E0,6E0,1.24E2,1.2E1,7E0,1.7E1,1.3E1,1.4E1,1.4E1,1.8E1,8E0,5.6E1,2E1,3.1E1,1.34E2],"tree_param":{"num_deleted":"0","num_feature":"11","num_nodes":"99","size_leaf_vector":"1"}},{"base_weights":[-1.8045905E-7,3.1790033E-3,-2.6801337E-5,4.5467033E-3,2.0626632E-3,1.2294644E-4,-5.4328266E-4,5.0112884E-4,2.1324182E-4,2.3193462E-3,8.28745E-4,-5.337705E-4,3.3450837E-4,-2.0844478E-3,-2.7551025E-4,-2.973138E-5,2.513611E-3,1.1761921E-4,-2.8052158E-5,-2.2621555E-4,-6.58461E-3,2.8057594E-3,7.589399E-5,-3.5291284E-3,-3.1609033E-4,-6.782285E-4,5.0445844E-4,3.0997335E-3,1.4009378E-3,1.3619319E-3,-7.482487E-4,6.9866166E-4,-7.267897E-4,4.8443624E-3,1.4511412E-3,-2.9333904E-3,2.4582035E-4,-6.8412856E-3,-2.7526754E-3,1.3351473E-3,-1.0555527E-3,1.6750586E-3,-1.0533993E-3,1.3447733E-3,-3.865442E-4,3.4505405E-4,1.2479397E-4,4.5536133E-5,1.9962798E-4,-9.5596304E-5,2.7278703E-4,-1.1829091E-4,2.5270315E-4,1.18721066E-4,-3.834928E-5,8.2493585E-4,2.1596784E-4,-8.482084E-5,2.2493846E-4,3.322925E-4,-3.6476715E-4,6.109902E-4,1.0340544E-5,-2.6269E-4,-8.422468E-4,-1.0018446E-4,-4.358232E-4,1.2507558E-5,2.2038289E-4,-1.85185E-4,1.0905733E-5,-3.5966194E-4,2.2342124E-4,-2.2364574E-4,-4.9450337E-5,-2.6824398E-6,3.174041E-4,-1.7691434E-4,1.1157196E-4],"categories":[],"categories_nodes":[],"categories_segments":[],"categories_sizes":[],"default_left":[0,0,0,0,0,0,0,0,0,0,0,0,0,0,0,0,0,0,0,0,0,0,0,0,0,0,0,0,0,0,0,0,0,0,0,0,0,0,0,0,0,0,0,0,0,0,0,0,0,0,0,0,0,0,0,0,0,0,0,0,0,0,0,0,0,0,0,0,0,0,0,0,0,0,0,0,0,0,0],"id":17,"left_children":[1,3,5,7,9,11,13,-1,-1,15,17,19,21,23,25,-1,27,-1,-1,29,31,33,35,37,39,41,43,45,47,49,51,53,-1,55,57,59,61,63,65,67,69,71,73,75,77,-1,-1,-1,-1,-1,-1,-1,-1,-1,-1,-1,-1,-1,-1,-1,-1,-1,-1,-1,-1,-1,-1,-1,-1,-1,-1,-1,-1,-1,-1,-1,-1,-1,-1],"loss_changes":[3.363308E-4,4.1006715E-5,3.0487133E-4,